x-axis,2
second,Volt
-249.3160E-06,
-249.0660E-06,+145.7286E-06
-248.8160E-06,-50.2513E-06
-248.5660E-06,+160.8040E-06
-248.3160E-06,-185.9296E-06
-248.0660E-06,-160.8040E-06
-247.8160E-06,-160.8040E-06
-247.5660E-06,+286.4322E-06
-247.3160E-06,-25.1256E-06
-247.0660E-06,+306.5327E-06
-246.8160E-06,+55.2764E-06
-246.5660E-06,-190.9548E-06
-246.3160E-06,+135.6784E-06
-246.0660E-06,+175.8794E-06
-245.8160E-06,+110.5528E-06
-245.5660E-06,-226.1307E-06
-245.3160E-06,+135.6784E-06
-245.0660E-06,-452.2613E-06
-244.8160E-06,-216.0804E-06
-244.5660E-06,+95.4774E-06
-244.3160E-06,+160.8040E-06
-244.0660E-06,-160.8040E-06
-243.8160E-06,-105.5276E-06
-243.5660E-06,-130.6533E-06
-243.3160E-06,+0.0E+00
-243.0660E-06,-15.0754E-06
-242.8160E-06,-1.4974874E-03
-242.5660E-06,+542.7136E-06
-242.3160E-06,+668.3417E-06
-242.0660E-06,-190.9548E-06
-241.8160E-06,-371.8593E-06
-241.5660E-06,+190.9548E-06
-241.3160E-06,+346.7337E-06
-241.0660E-06,+15.0754E-06
-240.8160E-06,-266.3317E-06
-240.5660E-06,+125.6281E-06
-240.3160E-06,+110.5528E-06
-240.0660E-06,-190.9548E-06
-239.8160E-06,+160.8040E-06
-239.5660E-06,+321.6080E-06
-239.3160E-06,-296.4824E-06
-239.0660E-06,-276.3819E-06
-238.8160E-06,-160.8040E-06
-238.5660E-06,-65.3266E-06
-238.3160E-06,-160.8040E-06
-238.0660E-06,-336.6834E-06
-237.8160E-06,+110.5528E-06
-237.5660E-06,+321.6080E-06
-237.3160E-06,+135.6784E-06
-237.0660E-06,+291.4573E-06
-236.8160E-06,-105.5276E-06
-236.5660E-06,-100.5025E-06
-236.3160E-06,+221.1055E-06
-236.0660E-06,-306.5327E-06
-235.8160E-06,-160.8040E-06
-235.5660E-06,+95.4774E-06
-235.3160E-06,-371.8593E-06
-235.0660E-06,-100.5025E-06
-234.8160E-06,+0.0E+00
-234.5660E-06,-30.1508E-06
-234.3160E-06,-346.7337E-06
-234.0660E-06,+130.6533E-06
-233.8160E-06,-432.1608E-06
-233.5660E-06,-226.1307E-06
-233.3160E-06,+0.0E+00
-233.0660E-06,+30.1508E-06
-232.8160E-06,-160.8040E-06
-232.5660E-06,+0.0E+00
-232.3160E-06,-160.8040E-06
-232.0660E-06,+145.7286E-06
-231.8160E-06,-105.5276E-06
-231.5660E-06,+0.0E+00
-231.3160E-06,+0.0E+00
-231.0660E-06,+15.0754E-06
-230.8160E-06,+0.0E+00
-230.5660E-06,-512.5628E-06
-230.3160E-06,-160.8040E-06
-230.0660E-06,-321.6080E-06
-229.8160E-06,-50.2513E-06
-229.5660E-06,-95.4774E-06
-229.3160E-06,-135.6784E-06
-229.0660E-06,-175.8794E-06
-228.8160E-06,+55.2764E-06
-228.5660E-06,+190.9548E-06
-228.3160E-06,+85.4271E-06
-228.0660E-06,+15.0754E-06
-227.8160E-06,+0.0E+00
-227.5660E-06,+35.1759E-06
-227.3160E-06,+25.1256E-06
-227.0660E-06,-160.8040E-06
-226.8160E-06,-160.8040E-06
-226.5660E-06,+226.1307E-06
-226.3160E-06,-296.4824E-06
-226.0660E-06,+321.6080E-06
-225.8160E-06,-165.8291E-06
-225.5660E-06,+0.0E+00
-225.3160E-06,-271.3568E-06
-225.0660E-06,+15.0754E-06
-224.8160E-06,+0.0E+00
-224.5660E-06,-160.8040E-06
-224.3160E-06,-110.5528E-06
-224.0660E-06,-15.0754E-06
-223.8160E-06,+55.2764E-06
-223.5660E-06,+0.0E+00
-223.3160E-06,-110.5528E-06
-223.0660E-06,-306.5327E-06
-222.8160E-06,+55.2764E-06
-222.5660E-06,-30.1508E-06
-222.3160E-06,-135.6784E-06
-222.0660E-06,-758.7940E-06
-221.8160E-06,-160.8040E-06
-221.5660E-06,+0.0E+00
-221.3160E-06,-135.6784E-06
-221.0660E-06,+175.8794E-06
-220.8160E-06,+271.3568E-06
-220.5660E-06,-226.1307E-06
-220.3160E-06,+0.0E+00
-220.0660E-06,-160.8040E-06
-219.8160E-06,-211.0553E-06
-219.5660E-06,+0.0E+00
-219.3160E-06,-75.3769E-06
-219.0660E-06,-30.1508E-06
-218.8160E-06,+0.0E+00
-218.5660E-06,+0.0E+00
-218.3160E-06,+25.1256E-06
-218.0660E-06,-15.0754E-06
-217.8160E-06,+0.0E+00
-217.5660E-06,+35.1759E-06
-217.3160E-06,+25.1256E-06
-217.0660E-06,-175.8794E-06
-216.8160E-06,-216.0804E-06
-216.5660E-06,-256.2814E-06
-216.3160E-06,+25.1256E-06
-216.0660E-06,+190.9548E-06
-215.8160E-06,-266.3317E-06
-215.5660E-06,-95.4774E-06
-215.3160E-06,-160.8040E-06
-215.0660E-06,-306.5327E-06
-214.8160E-06,-50.2513E-06
-214.5660E-06,-321.6080E-06
-214.3160E-06,+50.2513E-06
-214.0660E-06,+130.6533E-06
-213.8160E-06,-55.2764E-06
-213.5660E-06,-30.1508E-06
-213.3160E-06,-507.5377E-06
-213.0660E-06,-175.8794E-06
-212.8160E-06,+376.8844E-06
-212.5660E-06,-35.1759E-06
-212.3160E-06,+346.7337E-06
-212.0660E-06,+15.0754E-06
-211.8160E-06,-105.5276E-06
-211.5660E-06,-195.9799E-06
-211.3160E-06,+60.3015E-06
-211.0660E-06,+452.2613E-06
-210.8160E-06,+0.0E+00
-210.5660E-06,-130.6533E-06
-210.3160E-06,-185.9296E-06
-210.0660E-06,-452.2613E-06
-209.8160E-06,+105.5276E-06
-209.5660E-06,-95.4774E-06
-209.3160E-06,-160.8040E-06
-209.0660E-06,+0.0E+00
-208.8160E-06,+155.7789E-06
-208.5660E-06,+30.1508E-06
-208.3160E-06,-185.9296E-06
-208.0660E-06,-160.8040E-06
-207.8160E-06,+0.0E+00
-207.5660E-06,-130.6533E-06
-207.3160E-06,+160.8040E-06
-207.0660E-06,+0.0E+00
-206.8160E-06,-211.0553E-06
-206.5660E-06,-291.4573E-06
-206.3160E-06,-211.0553E-06
-206.0660E-06,+306.5327E-06
-205.8160E-06,-105.5276E-06
-205.5660E-06,-256.2814E-06
-205.3160E-06,+25.1256E-06
-205.0660E-06,+100.5025E-06
-204.8160E-06,-160.8040E-06
-204.5660E-06,+125.6281E-06
-204.3160E-06,-135.6784E-06
-204.0660E-06,+0.0E+00
-203.8160E-06,+160.8040E-06
-203.5660E-06,+30.1508E-06
-203.3160E-06,-321.6080E-06
-203.0660E-06,-306.5327E-06
-202.8160E-06,+271.3568E-06
-202.5660E-06,-608.0402E-06
-202.3160E-06,-25.1256E-06
-202.0660E-06,-30.1508E-06
-201.8160E-06,-160.8040E-06
-201.5660E-06,+130.6533E-06
-201.3160E-06,-135.6784E-06
-201.0660E-06,-190.9548E-06
-200.8160E-06,-160.8040E-06
-200.5660E-06,+190.9548E-06
-200.3160E-06,+50.2513E-06
-200.0660E-06,-130.6533E-06
-199.8160E-06,-211.0553E-06
-199.5660E-06,+65.3266E-06
-199.3160E-06,-296.4824E-06
-199.0660E-06,-145.7286E-06
-198.8160E-06,+216.0804E-06
-198.5660E-06,-65.3266E-06
-198.3160E-06,+50.2513E-06
-198.0660E-06,-145.7286E-06
-197.8160E-06,+105.5276E-06
-197.5660E-06,-65.3266E-06
-197.3160E-06,+25.1256E-06
-197.0660E-06,-15.0754E-06
-196.8160E-06,-216.0804E-06
-196.5660E-06,+0.0E+00
-196.3160E-06,-271.3568E-06
-196.0660E-06,-145.7286E-06
-195.8160E-06,+105.5276E-06
-195.5660E-06,+160.8040E-06
-195.3160E-06,-160.8040E-06
-195.0660E-06,-45.2261E-06
-194.8160E-06,+105.5276E-06
-194.5660E-06,-130.6533E-06
-194.3160E-06,-185.9296E-06
-194.0660E-06,-15.0754E-06
-193.8160E-06,+160.8040E-06
-193.5660E-06,-356.7839E-06
-193.3160E-06,+110.5528E-06
-193.0660E-06,+175.8794E-06
-192.8160E-06,+55.2764E-06
-192.5660E-06,-95.4774E-06
-192.3160E-06,+0.0E+00
-192.0660E-06,-160.8040E-06
-191.8160E-06,+0.0E+00
-191.5660E-06,+30.1508E-06
-191.3160E-06,-160.8040E-06
-191.0660E-06,+30.1508E-06
-190.8160E-06,-216.0804E-06
-190.5660E-06,-30.1508E-06
-190.3160E-06,+381.9095E-06
-190.0660E-06,+0.0E+00
-189.8160E-06,+105.5276E-06
-189.5660E-06,-321.6080E-06
-189.3160E-06,+160.8040E-06
-189.0660E-06,-175.8794E-06
-188.8160E-06,-105.5276E-06
-188.5660E-06,-65.3266E-06
-188.3160E-06,-110.5528E-06
-188.0660E-06,-306.5327E-06
-187.8160E-06,+160.8040E-06
-187.5660E-06,+0.0E+00
-187.3160E-06,+321.6080E-06
-187.0660E-06,+160.8040E-06
-186.8160E-06,-155.7789E-06
-186.5660E-06,-160.8040E-06
-186.3160E-06,-246.2312E-06
-186.0660E-06,+30.1508E-06
-185.8160E-06,-160.8040E-06
-185.5660E-06,+30.1508E-06
-185.3160E-06,+221.1055E-06
-185.0660E-06,+291.4573E-06
-184.8160E-06,-155.7789E-06
-184.5660E-06,-95.4774E-06
-184.3160E-06,-110.5528E-06
-184.0660E-06,+306.5327E-06
-183.8160E-06,-110.5528E-06
-183.5660E-06,-256.2814E-06
-183.3160E-06,-25.1256E-06
-183.0660E-06,-15.0754E-06
-182.8160E-06,-266.3317E-06
-182.5660E-06,-190.9548E-06
-182.3160E-06,-160.8040E-06
-182.0660E-06,-291.4573E-06
-181.8160E-06,+110.5528E-06
-181.5660E-06,+95.4774E-06
-181.3160E-06,-321.6080E-06
-181.0660E-06,+0.0E+00
-180.8160E-06,-110.5528E-06
-180.5660E-06,-65.3266E-06
-180.3160E-06,+160.8040E-06
-180.0660E-06,+15.0754E-06
-179.8160E-06,-160.8040E-06
-179.5660E-06,-256.2814E-06
-179.3160E-06,-25.1256E-06
-179.0660E-06,-15.0754E-06
-178.8160E-06,-422.1105E-06
-178.5660E-06,-321.6080E-06
-178.3160E-06,+50.2513E-06
-178.0660E-06,-160.8040E-06
-177.8160E-06,-50.2513E-06
-177.5660E-06,-160.8040E-06
-177.3160E-06,-296.4824E-06
-177.0660E-06,+160.8040E-06
-176.8160E-06,+160.8040E-06
-176.5660E-06,+30.1508E-06
-176.3160E-06,-75.3769E-06
-176.0660E-06,+130.6533E-06
-175.8160E-06,-216.0804E-06
-175.5660E-06,+30.1508E-06
-175.3160E-06,+0.0E+00
-175.0660E-06,+0.0E+00
-174.8160E-06,+316.5829E-06
-174.5660E-06,+226.1307E-06
-174.3160E-06,-407.0352E-06
-174.0660E-06,+30.1508E-06
-173.8160E-06,-266.3317E-06
-173.5660E-06,+30.1508E-06
-173.3160E-06,+85.4271E-06
-173.0660E-06,-306.5327E-06
-172.8160E-06,+160.8040E-06
-172.5660E-06,+351.7588E-06
-172.3160E-06,+0.0E+00
-172.0660E-06,+15.0754E-06
-171.8160E-06,+55.2764E-06
-171.5660E-06,-95.4774E-06
-171.3160E-06,-321.6080E-06
-171.0660E-06,+0.0E+00
-170.8160E-06,+55.2764E-06
-170.5660E-06,-160.8040E-06
-170.3160E-06,+160.8040E-06
-170.0660E-06,-175.8794E-06
-169.8160E-06,+160.8040E-06
-169.5660E-06,+130.6533E-06
-169.3160E-06,+25.1256E-06
-169.0660E-06,-306.5327E-06
-168.8160E-06,-160.8040E-06
-168.5660E-06,-190.9548E-06
-168.3160E-06,-75.3769E-06
-168.0660E-06,+15.0754E-06
-167.8160E-06,-110.5528E-06
-167.5660E-06,-256.2814E-06
-167.3160E-06,+135.6784E-06
-167.0660E-06,-45.2261E-06
-166.8160E-06,+55.2764E-06
-166.5660E-06,-160.8040E-06
-166.3160E-06,+246.2312E-06
-166.0660E-06,-160.8040E-06
-165.8160E-06,+55.2764E-06
-165.5660E-06,-65.3266E-06
-165.3160E-06,+185.9296E-06
-165.0660E-06,+130.6533E-06
-164.8160E-06,+0.0E+00
-164.5660E-06,+95.4774E-06
-164.3160E-06,-110.5528E-06
-164.0660E-06,-321.6080E-06
-163.8160E-06,+50.2513E-06
-163.5660E-06,+130.6533E-06
-163.3160E-06,-185.9296E-06
-163.0660E-06,-145.7286E-06
-162.8160E-06,+55.2764E-06
-162.5660E-06,-190.9548E-06
-162.3160E-06,-221.1055E-06
-162.0660E-06,-291.4573E-06
-161.8160E-06,-371.8593E-06
-161.5660E-06,+125.6281E-06
-161.3160E-06,+135.6784E-06
-161.0660E-06,+130.6533E-06
-160.8160E-06,-155.7789E-06
-160.5660E-06,+0.0E+00
-160.3160E-06,+25.1256E-06
-160.0660E-06,-452.2613E-06
-159.8160E-06,-376.8844E-06
-159.5660E-06,-226.1307E-06
-159.3160E-06,-25.1256E-06
-159.0660E-06,+145.7286E-06
-158.8160E-06,-105.5276E-06
-158.5660E-06,-190.9548E-06
-158.3160E-06,-135.6784E-06
-158.0660E-06,-15.0754E-06
-157.8160E-06,+110.5528E-06
-157.5660E-06,+482.4121E-06
-157.3160E-06,-135.6784E-06
-157.0660E-06,+0.0E+00
-156.8160E-06,+105.5276E-06
-156.5660E-06,+65.3266E-06
-156.3160E-06,+271.3568E-06
-156.0660E-06,-160.8040E-06
-155.8160E-06,+105.5276E-06
-155.5660E-06,-256.2814E-06
-155.3160E-06,+110.5528E-06
-155.0660E-06,-130.6533E-06
-154.8160E-06,+105.5276E-06
-154.5660E-06,+160.8040E-06
-154.3160E-06,-110.5528E-06
-154.0660E-06,-130.6533E-06
-153.8160E-06,-160.8040E-06
-153.5660E-06,+256.2814E-06
-153.3160E-06,-271.3568E-06
-153.0660E-06,-291.4573E-06
-152.8160E-06,-55.2764E-06
-152.5660E-06,-321.6080E-06
-152.3160E-06,-211.0553E-06
-152.0660E-06,+175.8794E-06
-151.8160E-06,+0.0E+00
-151.5660E-06,+190.9548E-06
-151.3160E-06,+160.8040E-06
-151.0660E-06,-336.6834E-06
-150.8160E-06,-55.2764E-06
-150.5660E-06,+190.9548E-06
-150.3160E-06,-110.5528E-06
-150.0660E-06,+145.7286E-06
-149.8160E-06,-60.3015E-06
-149.5660E-06,-95.4774E-06
-149.3160E-06,-160.8040E-06
-149.0660E-06,+175.8794E-06
-148.8160E-06,-55.2764E-06
-148.5660E-06,+130.6533E-06
-148.3160E-06,+110.5528E-06
-148.0660E-06,-145.7286E-06
-147.8160E-06,+0.0E+00
-147.5660E-06,+160.8040E-06
-147.3160E-06,-25.1256E-06
-147.0660E-06,+130.6533E-06
-146.8160E-06,+55.2764E-06
-146.5660E-06,+65.3266E-06
-146.3160E-06,+135.6784E-06
-146.0660E-06,+15.0754E-06
-145.8160E-06,-266.3317E-06
-145.5660E-06,+291.4573E-06
-145.3160E-06,-85.4271E-06
-145.0660E-06,+45.2261E-06
-144.8160E-06,-160.8040E-06
-144.5660E-06,-95.4774E-06
-144.3160E-06,+85.4271E-06
-144.0660E-06,+30.1508E-06
-143.8160E-06,-55.2764E-06
-143.5660E-06,-356.7839E-06
-143.3160E-06,+0.0E+00
-143.0660E-06,-160.8040E-06
-142.8160E-06,+216.0804E-06
-142.5660E-06,-256.2814E-06
-142.3160E-06,-110.5528E-06
-142.0660E-06,+145.7286E-06
-141.8160E-06,+211.0553E-06
-141.5660E-06,+226.1307E-06
-141.3160E-06,-135.6784E-06
-141.0660E-06,+30.1508E-06
-140.8160E-06,-371.8593E-06
-140.5660E-06,-65.3266E-06
-140.3160E-06,+0.0E+00
-140.0660E-06,-175.8794E-06
-139.8160E-06,+55.2764E-06
-139.5660E-06,-256.2814E-06
-139.3160E-06,-25.1256E-06
-139.0660E-06,+145.7286E-06
-138.8160E-06,+1.0603015E-03
-138.5660E-06,-1.6733668E-03
-138.3160E-06,-422.1105E-06
-138.0660E-06,+1.4321608E-03
-137.8160E-06,+160.8040E-06
-137.5660E-06,-512.5628E-06
-137.3160E-06,-185.9296E-06
-137.0660E-06,+467.3367E-06
-136.8160E-06,+110.5528E-06
-136.5660E-06,+291.4573E-06
-136.3160E-06,-50.2513E-06
-136.0660E-06,+467.3367E-06
-135.8160E-06,+165.8291E-06
-135.5660E-06,+30.1508E-06
-135.3160E-06,+321.6080E-06
-135.0660E-06,+0.0E+00
-134.8160E-06,+261.3065E-06
-134.5660E-06,+95.4774E-06
-134.3160E-06,-160.8040E-06
-134.0660E-06,-160.8040E-06
-133.8160E-06,+316.5829E-06
-133.5660E-06,-95.4774E-06
-133.3160E-06,-135.6784E-06
-133.0660E-06,+482.4121E-06
-132.8160E-06,-5.0251E-06
-132.5660E-06,+30.1508E-06
-132.3160E-06,-160.8040E-06
-132.0660E-06,+0.0E+00
-131.8160E-06,-211.0553E-06
-131.5660E-06,+160.8040E-06
-131.3160E-06,+221.1055E-06
-131.0660E-06,-130.6533E-06
-130.8160E-06,-216.0804E-06
-130.5660E-06,-190.9548E-06
-130.3160E-06,+135.6784E-06
-130.0660E-06,-130.6533E-06
-129.8160E-06,+266.3317E-06
-129.5660E-06,+160.8040E-06
-129.3160E-06,-160.8040E-06
-129.0660E-06,+160.8040E-06
-128.8160E-06,-477.3869E-06
-128.5660E-06,+65.3266E-06
-128.3160E-06,+135.6784E-06
-128.0660E-06,-175.8794E-06
-127.8160E-06,-266.3317E-06
-127.5660E-06,-160.8040E-06
-127.3160E-06,+110.5528E-06
-127.0660E-06,-145.7286E-06
-126.8160E-06,+110.5528E-06
-126.5660E-06,+95.4774E-06
-126.3160E-06,-110.5528E-06
-126.0660E-06,+291.4573E-06
-125.8160E-06,+105.5276E-06
-125.5660E-06,+30.1508E-06
-125.3160E-06,+135.6784E-06
-125.0660E-06,+15.0754E-06
-124.8160E-06,+0.0E+00
-124.5660E-06,-160.8040E-06
-124.3160E-06,+0.0E+00
-124.0660E-06,-130.6533E-06
-123.8160E-06,+160.8040E-06
-123.5660E-06,+256.2814E-06
-123.3160E-06,-321.6080E-06
-123.0660E-06,+145.7286E-06
-122.8160E-06,+55.2764E-06
-122.5660E-06,-452.2613E-06
-122.3160E-06,+0.0E+00
-122.0660E-06,-30.1508E-06
-121.8160E-06,+271.3568E-06
-121.5660E-06,+125.6281E-06
-121.3160E-06,-160.8040E-06
-121.0660E-06,+145.7286E-06
-120.8160E-06,+110.5528E-06
-120.5660E-06,-190.9548E-06
-120.3160E-06,+371.8593E-06
-120.0660E-06,+160.8040E-06
-119.8160E-06,+160.8040E-06
-119.5660E-06,-160.8040E-06
-119.3160E-06,+0.0E+00
-119.0660E-06,-30.1508E-06
-118.8160E-06,+266.3317E-06
-118.5660E-06,-195.9799E-06
-118.3160E-06,-321.6080E-06
-118.0660E-06,+160.8040E-06
-117.8160E-06,-55.2764E-06
-117.5660E-06,+65.3266E-06
-117.3160E-06,+135.6784E-06
-117.0660E-06,-145.7286E-06
-116.8160E-06,-211.0553E-06
-116.5660E-06,+0.0E+00
-116.3160E-06,+0.0E+00
-116.0660E-06,+130.6533E-06
-115.8160E-06,-321.6080E-06
-115.5660E-06,-160.8040E-06
-115.3160E-06,-432.1608E-06
-115.0660E-06,+145.7286E-06
-114.8160E-06,-271.3568E-06
-114.5660E-06,+65.3266E-06
-114.3160E-06,-110.5528E-06
-114.0660E-06,-160.8040E-06
-113.8160E-06,-376.8844E-06
-113.5660E-06,+125.6281E-06
-113.3160E-06,+50.2513E-06
-113.0660E-06,+115.5779E-06
-112.8160E-06,+0.0E+00
-112.5660E-06,+160.8040E-06
-112.3160E-06,+135.6784E-06
-112.0660E-06,+306.5327E-06
-111.8160E-06,-427.1357E-06
-111.5660E-06,-226.1307E-06
-111.3160E-06,-321.6080E-06
-111.0660E-06,+437.1859E-06
-110.8160E-06,-105.5276E-06
-110.5660E-06,-286.4322E-06
-110.3160E-06,+160.8040E-06
-110.0660E-06,-45.2261E-06
-109.8160E-06,+105.5276E-06
-109.5660E-06,-321.6080E-06
-109.3160E-06,-135.6784E-06
-109.0660E-06,-145.7286E-06
-108.8160E-06,-55.2764E-06
-108.5660E-06,+0.0E+00
-108.3160E-06,+25.1256E-06
-108.0660E-06,+175.8794E-06
-107.8160E-06,+50.2513E-06
-107.5660E-06,+30.1508E-06
-107.3160E-06,+135.6784E-06
-107.0660E-06,+0.0E+00
-106.8160E-06,+0.0E+00
-106.5660E-06,-190.9548E-06
-106.3160E-06,-110.5528E-06
-106.0660E-06,-306.5327E-06
-105.8160E-06,+0.0E+00
-105.5660E-06,+65.3266E-06
-105.3160E-06,+271.3568E-06
-105.0660E-06,-291.4573E-06
-104.8160E-06,-160.8040E-06
-104.5660E-06,+125.6281E-06
-104.3160E-06,-135.6784E-06
-104.0660E-06,+1.0552764E-03
-103.8160E-06,+1.2261306E-03
-103.5660E-06,-768.8442E-06
-103.3160E-06,-668.3417E-06
-103.0660E-06,+0.0E+00
-102.8160E-06,+532.6633E-06
-102.5660E-06,-226.1307E-06
-102.3160E-06,-728.6432E-06
-102.0660E-06,-145.7286E-06
-101.8160E-06,+110.5528E-06
-101.5660E-06,-321.6080E-06
-101.3160E-06,+160.8040E-06
-101.0660E-06,+452.2613E-06
-100.8160E-06,-211.0553E-06
-100.5660E-06,+321.6080E-06
-100.3160E-06,+110.5528E-06
-100.0660E-06,-145.7286E-06
-99.8160E-06,+160.8040E-06
-99.5660E-06,+0.0E+00
-99.3160E-06,+135.6784E-06
-99.0660E-06,-306.5327E-06
-98.8160E-06,+0.0E+00
-98.5660E-06,-95.4774E-06
-98.3160E-06,+25.1256E-06
-98.0660E-06,-261.3065E-06
-97.8160E-06,-105.5276E-06
-97.5660E-06,+0.0E+00
-97.3160E-06,-135.6784E-06
-97.0660E-06,-160.8040E-06
-96.8160E-06,-261.3065E-06
-96.5660E-06,+160.8040E-06
-96.3160E-06,+296.4824E-06
-96.0660E-06,+145.7286E-06
-95.8160E-06,-50.2513E-06
-95.5660E-06,-65.3266E-06
-95.3160E-06,-296.4824E-06
-95.0660E-06,+0.0E+00
-94.8160E-06,+105.5276E-06
-94.5660E-06,-286.4322E-06
-94.3160E-06,-432.1608E-06
-94.0660E-06,-291.4573E-06
-93.8160E-06,+160.8040E-06
-93.5660E-06,-321.6080E-06
-93.3160E-06,+25.1256E-06
-93.0660E-06,+291.4573E-06
-92.8160E-06,+55.2764E-06
-92.5660E-06,-160.8040E-06
-92.3160E-06,+271.3568E-06
-92.0660E-06,-130.6533E-06
-91.8160E-06,+266.3317E-06
-91.5660E-06,-195.9799E-06
-91.3160E-06,+135.6784E-06
-91.0660E-06,+190.9548E-06
-90.8160E-06,-211.0553E-06
-90.5660E-06,+0.0E+00
-90.3160E-06,+135.6784E-06
-90.0660E-06,+145.7286E-06
-89.8160E-06,+50.2513E-06
-89.5660E-06,+0.0E+00
-89.3160E-06,+0.0E+00
-89.0660E-06,+145.7286E-06
-88.8160E-06,+165.8291E-06
-88.5660E-06,-291.4573E-06
-88.3160E-06,+185.9296E-06
-88.0660E-06,+160.8040E-06
-87.8160E-06,+0.0E+00
-87.5660E-06,+0.0E+00
-87.3160E-06,-160.8040E-06
-87.0660E-06,-15.0754E-06
-86.8160E-06,+55.2764E-06
-86.5660E-06,+226.1307E-06
-86.3160E-06,+135.6784E-06
-86.0660E-06,+160.8040E-06
-85.8160E-06,-266.3317E-06
-85.5660E-06,+226.1307E-06
-85.3160E-06,-25.1256E-06
-85.0660E-06,+0.0E+00
-84.8160E-06,+160.8040E-06
-84.5660E-06,-65.3266E-06
-84.3160E-06,-85.4271E-06
-84.0660E-06,-291.4573E-06
-83.8160E-06,-55.2764E-06
-83.5660E-06,+256.2814E-06
-83.3160E-06,-50.2513E-06
-83.0660E-06,+145.7286E-06
-82.8160E-06,+271.3568E-06
-82.5660E-06,-95.4774E-06
-82.3160E-06,+321.6080E-06
-82.0660E-06,+130.6533E-06
-81.8160E-06,+266.3317E-06
-81.5660E-06,-226.1307E-06
-81.3160E-06,-160.8040E-06
-81.0660E-06,+145.7286E-06
-80.8160E-06,-321.6080E-06
-80.5660E-06,+160.8040E-06
-80.3160E-06,+185.9296E-06
-80.0660E-06,+467.3367E-06
-79.8160E-06,-160.8040E-06
-79.5660E-06,+482.4121E-06
-79.3160E-06,+321.6080E-06
-79.0660E-06,-160.8040E-06
-78.8160E-06,-50.2513E-06
-78.5660E-06,+321.6080E-06
-78.3160E-06,+0.0E+00
-78.0660E-06,-30.1508E-06
-77.8160E-06,+155.7789E-06
-77.5660E-06,+35.1759E-06
-77.3160E-06,-135.6784E-06
-77.0660E-06,-15.0754E-06
-76.8160E-06,-160.8040E-06
-76.5660E-06,-286.4322E-06
-76.3160E-06,-110.5528E-06
-76.0660E-06,+321.6080E-06
-75.8160E-06,-266.3317E-06
-75.5660E-06,-417.0854E-06
-75.3160E-06,-185.9296E-06
-75.0660E-06,-306.5327E-06
-74.8160E-06,+0.0E+00
-74.5660E-06,+95.4774E-06
-74.3160E-06,+135.6784E-06
-74.0660E-06,+452.2613E-06
-73.8160E-06,-321.6080E-06
-73.5660E-06,+65.3266E-06
-73.3160E-06,-160.8040E-06
-73.0660E-06,+100.5025E-06
-72.8160E-06,+0.0E+00
-72.5660E-06,-160.8040E-06
-72.3160E-06,-271.3568E-06
-72.0660E-06,+306.5327E-06
-71.8160E-06,-105.5276E-06
-71.5660E-06,-226.1307E-06
-71.3160E-06,+110.5528E-06
-71.0660E-06,+15.0754E-06
-70.8160E-06,+105.5276E-06
-70.5660E-06,+160.8040E-06
-70.3160E-06,-60.3015E-06
-70.0660E-06,+291.4573E-06
-69.8160E-06,-55.2764E-06
-69.5660E-06,-130.6533E-06
-69.3160E-06,+432.1608E-06
-69.0660E-06,-291.4573E-06
-68.8160E-06,-316.5829E-06
-68.5660E-06,-95.4774E-06
-68.3160E-06,-296.4824E-06
-68.0660E-06,+276.3819E-06
-67.8160E-06,+160.8040E-06
-67.5660E-06,-65.3266E-06
-67.3160E-06,+160.8040E-06
-67.0660E-06,+160.8040E-06
-66.8160E-06,+216.0804E-06
-66.5660E-06,-100.5025E-06
-66.3160E-06,+0.0E+00
-66.0660E-06,+145.7286E-06
-65.8160E-06,+50.2513E-06
-65.5660E-06,-226.1307E-06
-65.3160E-06,+160.8040E-06
-65.0660E-06,-160.8040E-06
-64.8160E-06,-105.5276E-06
-64.5660E-06,+130.6533E-06
-64.3160E-06,-25.1256E-06
-64.0660E-06,-437.1859E-06
-63.8160E-06,+266.3317E-06
-63.5660E-06,-160.8040E-06
-63.3160E-06,-321.6080E-06
-63.0660E-06,-130.6533E-06
-62.8160E-06,+371.8593E-06
-62.5660E-06,+0.0E+00
-62.3160E-06,+110.5528E-06
-62.0660E-06,+306.5327E-06
-61.8160E-06,+0.0E+00
-61.5660E-06,-65.3266E-06
-61.3160E-06,+0.0E+00
-61.0660E-06,+130.6533E-06
-60.8160E-06,-160.8040E-06
-60.5660E-06,+256.2814E-06
-60.3160E-06,-160.8040E-06
-60.0660E-06,-160.8040E-06
-59.8160E-06,-160.8040E-06
-59.5660E-06,+30.1508E-06
-59.3160E-06,+135.6784E-06
-59.0660E-06,+175.8794E-06
-58.8160E-06,-160.8040E-06
-58.5660E-06,+286.4322E-06
-58.3160E-06,+135.6784E-06
-58.0660E-06,+30.1508E-06
-57.8160E-06,+0.0E+00
-57.5660E-06,+160.8040E-06
-57.3160E-06,+0.0E+00
-57.0660E-06,+0.0E+00
-56.8160E-06,+105.5276E-06
-56.5660E-06,-95.4774E-06
-56.3160E-06,-321.6080E-06
-56.0660E-06,-190.9548E-06
-55.8160E-06,+50.2513E-06
-55.5660E-06,-190.9548E-06
-55.3160E-06,-246.2312E-06
-55.0660E-06,-145.7286E-06
-54.8160E-06,-211.0553E-06
-54.5660E-06,-130.6533E-06
-54.3160E-06,-25.1256E-06
-54.0660E-06,+0.0E+00
-53.8160E-06,+105.5276E-06
-53.5660E-06,+321.6080E-06
-53.3160E-06,+0.0E+00
-53.0660E-06,+15.0754E-06
-52.8160E-06,+105.5276E-06
-52.5660E-06,+35.1759E-06
-52.3160E-06,+25.1256E-06
-52.0660E-06,+130.6533E-06
-51.8160E-06,-55.2764E-06
-51.5660E-06,+30.1508E-06
-51.3160E-06,+25.1256E-06
-51.0660E-06,+160.8040E-06
-50.8160E-06,+321.6080E-06
-50.5660E-06,-130.6533E-06
-50.3160E-06,+0.0E+00
-50.0660E-06,+160.8040E-06
-49.8160E-06,+376.8844E-06
-49.5660E-06,+160.8040E-06
-49.3160E-06,-135.6784E-06
-49.0660E-06,+291.4573E-06
-48.8160E-06,+0.0E+00
-48.5660E-06,+0.0E+00
-48.3160E-06,+50.2513E-06
-48.0660E-06,-321.6080E-06
-47.8160E-06,+160.8040E-06
-47.5660E-06,+160.8040E-06
-47.3160E-06,+25.1256E-06
-47.0660E-06,-30.1508E-06
-46.8160E-06,+5.0251E-06
-46.5660E-06,-226.1307E-06
-46.3160E-06,-25.1256E-06
-46.0660E-06,-115.5779E-06
-45.8160E-06,+216.0804E-06
-45.5660E-06,+0.0E+00
-45.3160E-06,+160.8040E-06
-45.0660E-06,-145.7286E-06
-44.8160E-06,+110.5528E-06
-44.5660E-06,-30.1508E-06
-44.3160E-06,-211.0553E-06
-44.0660E-06,+0.0E+00
-43.8160E-06,+55.2764E-06
-43.5660E-06,+95.4774E-06
-43.3160E-06,+160.8040E-06
-43.0660E-06,-336.6834E-06
-42.8160E-06,-50.2513E-06
-42.5660E-06,+286.4322E-06
-42.3160E-06,+110.5528E-06
-42.0660E-06,+0.0E+00
-41.8160E-06,-160.8040E-06
-41.5660E-06,+256.2814E-06
-41.3160E-06,-50.2513E-06
-41.0660E-06,+130.6533E-06
-40.8160E-06,+482.4121E-06
-40.5660E-06,+130.6533E-06
-40.3160E-06,+50.2513E-06
-40.0660E-06,+145.7286E-06
-39.8160E-06,+211.0553E-06
-39.5660E-06,+65.3266E-06
-39.3160E-06,-25.1256E-06
-39.0660E-06,-321.6080E-06
-38.8160E-06,-321.6080E-06
-38.5660E-06,-95.4774E-06
-38.3160E-06,-271.3568E-06
-38.0660E-06,+15.0754E-06
-37.8160E-06,-50.2513E-06
-37.5660E-06,+256.2814E-06
-37.3160E-06,-160.8040E-06
-37.0660E-06,-190.9548E-06
-36.8160E-06,+216.0804E-06
-36.5660E-06,+321.6080E-06
-36.3160E-06,-50.2513E-06
-36.0660E-06,-175.8794E-06
-35.8160E-06,+105.5276E-06
-35.5660E-06,-226.1307E-06
-35.3160E-06,-160.8040E-06
-35.0660E-06,-15.0754E-06
-34.8160E-06,-427.1357E-06
-34.5660E-06,-160.8040E-06
-34.3160E-06,+0.0E+00
-34.0660E-06,-482.4121E-06
-33.8160E-06,+5.0251E-06
-33.5660E-06,+321.6080E-06
-33.3160E-06,+221.1055E-06
-33.0660E-06,+160.8040E-06
-32.8160E-06,-50.2513E-06
-32.5660E-06,-95.4774E-06
-32.3160E-06,-25.1256E-06
-32.0660E-06,+276.3819E-06
-31.8160E-06,-50.2513E-06
-31.5660E-06,-65.3266E-06
-31.3160E-06,+296.4824E-06
-31.0660E-06,-291.4573E-06
-30.8160E-06,+0.0E+00
-30.5660E-06,-286.4322E-06
-30.3160E-06,-160.8040E-06
-30.0660E-06,+30.1508E-06
-29.8160E-06,+0.0E+00
-29.5660E-06,+286.4322E-06
-29.3160E-06,+25.1256E-06
-29.0660E-06,+0.0E+00
-28.8160E-06,+55.2764E-06
-28.5660E-06,+30.1508E-06
-28.3160E-06,-185.9296E-06
-28.0660E-06,+160.8040E-06
-27.8160E-06,-160.8040E-06
-27.5660E-06,+291.4573E-06
-27.3160E-06,-321.6080E-06
-27.0660E-06,-30.1508E-06
-26.8160E-06,-160.8040E-06
-26.5660E-06,-30.1508E-06
-26.3160E-06,+50.2513E-06
-26.0660E-06,-306.5327E-06
-25.8160E-06,+211.0553E-06
-25.5660E-06,-130.6533E-06
-25.3160E-06,-296.4824E-06
-25.0660E-06,+336.6834E-06
-24.8160E-06,-155.7789E-06
-24.5660E-06,-195.9799E-06
-24.3160E-06,-25.1256E-06
-24.0660E-06,+130.6533E-06
-23.8160E-06,-110.5528E-06
-23.5660E-06,-417.0854E-06
-23.3160E-06,+25.1256E-06
-23.0660E-06,-15.0754E-06
-22.8160E-06,+266.3317E-06
-22.5660E-06,+65.3266E-06
-22.3160E-06,-160.8040E-06
-22.0660E-06,+145.7286E-06
-21.8160E-06,-261.3065E-06
-21.5660E-06,-160.8040E-06
-21.3160E-06,+135.6784E-06
-21.0660E-06,+175.8794E-06
-20.8160E-06,+105.5276E-06
-20.5660E-06,+95.4774E-06
-20.3160E-06,-135.6784E-06
-20.0660E-06,+15.0754E-06
-19.8160E-06,-50.2513E-06
-19.5660E-06,-160.8040E-06
-19.3160E-06,+60.3015E-06
-19.0660E-06,+15.0754E-06
-18.8160E-06,+0.0E+00
-18.5660E-06,-125.6281E-06
-18.3160E-06,+271.3568E-06
-18.0660E-06,-160.8040E-06
-17.8160E-06,-216.0804E-06
-17.5660E-06,-65.3266E-06
-17.3160E-06,+321.6080E-06
-17.0660E-06,-130.6533E-06
-16.8160E-06,-266.3317E-06
-16.5660E-06,-291.4573E-06
-16.3160E-06,+432.1608E-06
-16.0660E-06,+306.5327E-06
-15.8160E-06,-105.5276E-06
-15.5660E-06,-160.8040E-06
-15.3160E-06,+0.0E+00
-15.0660E-06,-190.9548E-06
-14.8160E-06,-160.8040E-06
-14.5660E-06,-65.3266E-06
-14.3160E-06,-160.8040E-06
-14.0660E-06,+15.0754E-06
-13.8160E-06,-160.8040E-06
-13.5660E-06,-226.1307E-06
-13.3160E-06,-50.2513E-06
-13.0660E-06,-115.5779E-06
-12.8160E-06,-155.7789E-06
-12.5660E-06,+190.9548E-06
-12.3160E-06,+296.4824E-06
-12.0660E-06,+30.1508E-06
-11.8160E-06,-105.5276E-06
-11.5660E-06,-100.5025E-06
-11.3160E-06,-211.0553E-06
-11.0660E-06,-145.7286E-06
-10.8160E-06,+105.5276E-06
-10.5660E-06,+65.3266E-06
-10.3160E-06,-211.0553E-06
-10.0660E-06,-15.0754E-06
-9.8160E-06,+316.5829E-06
-9.5660E-06,+542.7136E-06
-9.3160E-06,-618.0904E-06
-9.0660E-06,-45.2261E-06
-8.8160E-06,-160.8040E-06
-8.5660E-06,+321.6080E-06
-8.3160E-06,-135.6784E-06
-8.0660E-06,-351.7588E-06
-7.8160E-06,+55.2764E-06
-7.5660E-06,+417.0854E-06
-7.3160E-06,+0.0E+00
-7.0660E-06,+160.8040E-06
-6.8160E-06,-105.5276E-06
-6.5660E-06,-95.4774E-06
-6.3160E-06,-135.6784E-06
-6.0660E-06,+276.3819E-06
-5.8160E-06,-105.5276E-06
-5.5660E-06,-30.1508E-06
-5.3160E-06,+296.4824E-06
-5.0660E-06,-175.8794E-06
-4.8160E-06,-160.8040E-06
-4.5660E-06,+65.3266E-06
-4.3160E-06,-321.6080E-06
-4.0660E-06,+145.7286E-06
-3.8160E-06,+160.8040E-06
-3.5660E-06,-65.3266E-06
-3.3160E-06,+271.3568E-06
-3.0660E-06,+145.7286E-06
-2.8160E-06,+0.0E+00
-2.5660E-06,+0.0E+00
-2.3160E-06,+110.5528E-06
-2.0660E-06,-30.1508E-06
-1.8160E-06,+211.0553E-06
-1.5660E-06,-160.8040E-06
-1.3160E-06,-135.6784E-06
-1.0660E-06,+160.8040E-06
-816.0E-09,-105.5276E-06
-566.0E-09,-256.2814E-06
-316.0E-09,-135.6784E-06
-66.0E-09,-261.3065E-06
+184.0E-09,-266.3317E-06
+434.0E-09,+1.6733668E-03
+684.0E-09,+75.3769E-06
+934.0E-09,-964.8241E-06
+1.1840E-06,+216.0804E-06
+1.4340E-06,+256.2814E-06
+1.6840E-06,+25.1256E-06
+1.9340E-06,-306.5327E-06
+2.1840E-06,-266.3317E-06
+2.4340E-06,+190.9548E-06
+2.6840E-06,+321.6080E-06
+2.9340E-06,-45.2261E-06
+3.1840E-06,+160.8040E-06
+3.4340E-06,+512.5628E-06
+3.6840E-06,-25.1256E-06
+3.9340E-06,+160.8040E-06
+4.1840E-06,-211.0553E-06
+4.4340E-06,-95.4774E-06
+4.6840E-06,+0.0E+00
+4.9340E-06,+306.5327E-06
+5.1840E-06,+100.5025E-06
+5.4340E-06,+30.1508E-06
+5.6840E-06,-25.1256E-06
+5.9340E-06,-15.0754E-06
+6.1840E-06,+160.8040E-06
+6.4340E-06,-95.4774E-06
+6.6840E-06,-110.5528E-06
+6.9340E-06,-30.1508E-06
+7.1840E-06,+216.0804E-06
+7.4340E-06,-30.1508E-06
+7.6840E-06,+0.0E+00
+7.9340E-06,+160.8040E-06
+8.1840E-06,-110.5528E-06
+8.4340E-06,+130.6533E-06
+8.6840E-06,-135.6784E-06
+8.9340E-06,+160.8040E-06
+9.1840E-06,-105.5276E-06
+9.4340E-06,-321.6080E-06
+9.6840E-06,+457.2864E-06
+9.9340E-06,-452.2613E-06
+10.1840E-06,+105.5276E-06
+10.4340E-06,+417.0854E-06
+10.6840E-06,-85.4271E-06
+10.9340E-06,+145.7286E-06
+11.1840E-06,+266.3317E-06
+11.4340E-06,-160.8040E-06
+11.6840E-06,-25.1256E-06
+11.9340E-06,+15.0754E-06
+12.1840E-06,+55.2764E-06
+12.4340E-06,+30.1508E-06
+12.6840E-06,+135.6784E-06
+12.9340E-06,-306.5327E-06
+13.1840E-06,-427.1357E-06
+13.4340E-06,+0.0E+00
+13.6840E-06,+0.0E+00
+13.9340E-06,+467.3367E-06
+14.1840E-06,+0.0E+00
+14.4340E-06,+160.8040E-06
+14.6840E-06,-160.8040E-06
+14.9340E-06,+145.7286E-06
+15.1840E-06,-216.0804E-06
+15.4340E-06,-226.1307E-06
+15.6840E-06,-211.0553E-06
+15.9340E-06,+276.3819E-06
+16.1840E-06,-376.8844E-06
+16.4340E-06,+226.1307E-06
+16.6840E-06,+25.1256E-06
+16.9340E-06,+15.0754E-06
+17.1840E-06,-160.8040E-06
+17.4340E-06,-130.6533E-06
+17.6840E-06,-25.1256E-06
+17.9340E-06,-160.8040E-06
+18.1840E-06,-105.5276E-06
+18.4340E-06,+190.9548E-06
+18.6840E-06,+296.4824E-06
+18.9340E-06,-15.0754E-06
+19.1840E-06,-105.5276E-06
+19.4340E-06,+226.1307E-06
+19.6840E-06,+110.5528E-06
+19.9340E-06,+160.8040E-06
+20.1840E-06,-160.8040E-06
+20.4340E-06,-160.8040E-06
+20.6840E-06,+25.1256E-06
+20.9340E-06,+306.5327E-06
+21.1840E-06,-50.2513E-06
+21.4340E-06,+0.0E+00
+21.6840E-06,-160.8040E-06
+21.9340E-06,+190.9548E-06
+22.1840E-06,-216.0804E-06
+22.4340E-06,+65.3266E-06
+22.6840E-06,+457.2864E-06
+22.9340E-06,+60.3015E-06
+23.1840E-06,+105.5276E-06
+23.4340E-06,+95.4774E-06
+23.6840E-06,-25.1256E-06
+23.9340E-06,+130.6533E-06
+24.1840E-06,-50.2513E-06
+24.4340E-06,-95.4774E-06
+24.6840E-06,+0.0E+00
+24.9340E-06,+0.0E+00
+25.1840E-06,+271.3568E-06
+25.4340E-06,+226.1307E-06
+25.6840E-06,+185.9296E-06
+25.9340E-06,-15.0754E-06
+26.1840E-06,-55.2764E-06
+26.4340E-06,+95.4774E-06
+26.6840E-06,+296.4824E-06
+26.9340E-06,+306.5327E-06
+27.1840E-06,+266.3317E-06
+27.4340E-06,+452.2613E-06
+27.6840E-06,+110.5528E-06
+27.9340E-06,-30.1508E-06
+28.1840E-06,-105.5276E-06
+28.4340E-06,-286.4322E-06
+28.6840E-06,+135.6784E-06
+28.9340E-06,-15.0754E-06
+29.1840E-06,+105.5276E-06
+29.4340E-06,-160.8040E-06
+29.6840E-06,-296.4824E-06
+29.9340E-06,-276.3819E-06
+30.1840E-06,+5.0251E-06
+30.4340E-06,+321.6080E-06
+30.6840E-06,+25.1256E-06
+30.9340E-06,+291.4573E-06
+31.1840E-06,-55.2764E-06
+31.4340E-06,-226.1307E-06
+31.6840E-06,-160.8040E-06
+31.9340E-06,-291.4573E-06
+32.1840E-06,+216.0804E-06
+32.4340E-06,+256.2814E-06
+32.6840E-06,-160.8040E-06
+32.9340E-06,-175.8794E-06
+33.1840E-06,-160.8040E-06
+33.4340E-06,-130.6533E-06
+33.6840E-06,+160.8040E-06
+33.9340E-06,+115.5779E-06
+34.1840E-06,-50.2513E-06
+34.4340E-06,-35.1759E-06
+34.6840E-06,+85.4271E-06
+34.9340E-06,-688.4422E-06
+35.1840E-06,-959.7990E-06
+35.4340E-06,+768.8442E-06
+35.6840E-06,+346.7337E-06
+35.9340E-06,-658.2915E-06
+36.1840E-06,-165.8291E-06
+36.4340E-06,+386.9347E-06
+36.6840E-06,-135.6784E-06
+36.9340E-06,-497.4874E-06
+37.1840E-06,+50.2513E-06
+37.4340E-06,+0.0E+00
+37.6840E-06,-110.5528E-06
+37.9340E-06,-160.8040E-06
+38.1840E-06,+155.7789E-06
+38.4340E-06,-130.6533E-06
+38.6840E-06,-296.4824E-06
+38.9340E-06,-130.6533E-06
+39.1840E-06,-160.8040E-06
+39.4340E-06,+160.8040E-06
+39.6840E-06,-135.6784E-06
+39.9340E-06,-306.5327E-06
+40.1840E-06,+55.2764E-06
+40.4340E-06,-30.1508E-06
+40.6840E-06,+296.4824E-06
+40.9340E-06,+145.7286E-06
+41.1840E-06,-427.1357E-06
+41.4340E-06,+65.3266E-06
+41.6840E-06,+110.5528E-06
+41.9340E-06,-306.5327E-06
+42.1840E-06,+105.5276E-06
+42.4340E-06,-190.9548E-06
+42.6840E-06,-25.1256E-06
+42.9340E-06,+145.7286E-06
+43.1840E-06,+50.2513E-06
+43.4340E-06,+226.1307E-06
+43.6840E-06,-457.2864E-06
+43.9340E-06,-306.5327E-06
+44.1840E-06,+55.2764E-06
+44.4340E-06,+95.4774E-06
+44.6840E-06,+25.1256E-06
+44.9340E-06,-15.0754E-06
+45.1840E-06,+105.5276E-06
+45.4340E-06,+160.8040E-06
+45.6840E-06,+135.6784E-06
+45.9340E-06,+321.6080E-06
+46.1840E-06,+105.5276E-06
+46.4340E-06,+226.1307E-06
+46.6840E-06,-271.3568E-06
+46.9340E-06,+30.1508E-06
+47.1840E-06,+0.0E+00
+47.4340E-06,-256.2814E-06
+47.6840E-06,+381.9095E-06
+47.9340E-06,+30.1508E-06
+48.1840E-06,+0.0E+00
+48.4340E-06,-95.4774E-06
+48.6840E-06,-432.1608E-06
+48.9340E-06,-15.0754E-06
+49.1840E-06,+105.5276E-06
+49.4340E-06,+130.6533E-06
+49.6840E-06,+296.4824E-06
+49.9340E-06,+145.7286E-06
+50.1840E-06,-55.2764E-06
+50.4340E-06,+130.6533E-06
+50.6840E-06,-60.3015E-06
+50.9340E-06,+130.6533E-06
+51.1840E-06,-50.2513E-06
+51.4340E-06,-160.8040E-06
+51.6840E-06,-25.1256E-06
+51.9340E-06,-276.3819E-06
+52.1840E-06,+160.8040E-06
+52.4340E-06,-95.4774E-06
+52.6840E-06,-135.6784E-06
+52.9340E-06,+613.0653E-06
+53.1840E-06,+321.6080E-06
+53.4340E-06,-160.8040E-06
+53.6840E-06,+160.8040E-06
+53.9340E-06,-321.6080E-06
+54.1840E-06,+155.7789E-06
+54.4340E-06,-226.1307E-06
+54.6840E-06,-185.9296E-06
+54.9340E-06,-291.4573E-06
+55.1840E-06,+110.5528E-06
+55.4340E-06,-422.1105E-06
+55.6840E-06,-618.0904E-06
+55.9340E-06,+336.6834E-06
+56.1840E-06,+55.2764E-06
+56.4340E-06,+256.2814E-06
+56.6840E-06,+135.6784E-06
+56.9340E-06,-30.1508E-06
+57.1840E-06,-211.0553E-06
+57.4340E-06,-65.3266E-06
+57.6840E-06,+321.6080E-06
+57.9340E-06,+261.3065E-06
+58.1840E-06,-160.8040E-06
+58.4340E-06,-160.8040E-06
+58.6840E-06,+296.4824E-06
+58.9340E-06,-30.1508E-06
+59.1840E-06,-50.2513E-06
+59.4340E-06,-65.3266E-06
+59.6840E-06,-185.9296E-06
+59.9340E-06,-15.0754E-06
+60.1840E-06,+50.2513E-06
+60.4340E-06,+286.4322E-06
+60.6840E-06,+135.6784E-06
+60.9340E-06,-175.8794E-06
+61.1840E-06,+50.2513E-06
+61.4340E-06,+321.6080E-06
+61.6840E-06,+135.6784E-06
+61.9340E-06,+130.6533E-06
+62.1840E-06,+160.8040E-06
+62.4340E-06,+0.0E+00
+62.6840E-06,-60.3015E-06
+62.9340E-06,-130.6533E-06
+63.1840E-06,-216.0804E-06
+63.4340E-06,+0.0E+00
+63.6840E-06,-135.6784E-06
+63.9340E-06,-160.8040E-06
+64.1840E-06,-216.0804E-06
+64.4340E-06,-386.9347E-06
+64.6840E-06,+160.8040E-06
+64.9340E-06,-160.8040E-06
+65.1840E-06,+0.0E+00
+65.4340E-06,-30.1508E-06
+65.6840E-06,+246.2312E-06
+65.9340E-06,+145.7286E-06
+66.1840E-06,+0.0E+00
+66.4340E-06,-30.1508E-06
+66.6840E-06,+110.5528E-06
+66.9340E-06,+0.0E+00
+67.1840E-06,+211.0553E-06
+67.4340E-06,-256.2814E-06
+67.6840E-06,-321.6080E-06
+67.9340E-06,-276.3819E-06
+68.1840E-06,-266.3317E-06
+68.4340E-06,+30.1508E-06
+68.6840E-06,+246.2312E-06
+68.9340E-06,+15.0754E-06
+69.1840E-06,+160.8040E-06
+69.4340E-06,-95.4774E-06
+69.6840E-06,+0.0E+00
+69.9340E-06,-15.0754E-06
+70.1840E-06,+160.8040E-06
+70.4340E-06,+0.0E+00
+70.6840E-06,-110.5528E-06
+70.9340E-06,-321.6080E-06
+71.1840E-06,+55.2764E-06
+71.4340E-06,-160.8040E-06
+71.6840E-06,-25.1256E-06
+71.9340E-06,-321.6080E-06
+72.1840E-06,+55.2764E-06
+72.4340E-06,+30.1508E-06
+72.6840E-06,-110.5528E-06
+72.9340E-06,-145.7286E-06
+73.1840E-06,+0.0E+00
+73.4340E-06,-65.3266E-06
+73.6840E-06,-50.2513E-06
+73.9340E-06,+0.0E+00
+74.1840E-06,-5.0251E-06
+74.4340E-06,-226.1307E-06
+74.6840E-06,+25.1256E-06
+74.9340E-06,+175.8794E-06
+75.1840E-06,+160.8040E-06
+75.4340E-06,-95.4774E-06
+75.6840E-06,+296.4824E-06
+75.9340E-06,+0.0E+00
+76.1840E-06,-482.4121E-06
+76.4340E-06,+65.3266E-06
+76.6840E-06,+221.1055E-06
+76.9340E-06,-130.6533E-06
+77.1840E-06,+110.5528E-06
+77.4340E-06,+190.9548E-06
+77.6840E-06,+0.0E+00
+77.9340E-06,+0.0E+00
+78.1840E-06,-55.2764E-06
+78.4340E-06,+65.3266E-06
+78.6840E-06,+271.3568E-06
+78.9340E-06,-15.0754E-06
+79.1840E-06,+160.8040E-06
+79.4340E-06,-95.4774E-06
+79.6840E-06,-85.4271E-06
+79.9340E-06,+30.1508E-06
+80.1840E-06,+160.8040E-06
+80.4340E-06,-226.1307E-06
+80.6840E-06,-221.1055E-06
+80.9340E-06,-452.2613E-06
+81.1840E-06,+0.0E+00
+81.4340E-06,+30.1508E-06
+81.6840E-06,+321.6080E-06
+81.9340E-06,+175.8794E-06
+82.1840E-06,+110.5528E-06
+82.4340E-06,+286.4322E-06
+82.6840E-06,+110.5528E-06
+82.9340E-06,+0.0E+00
+83.1840E-06,+160.8040E-06
+83.4340E-06,+321.6080E-06
+83.6840E-06,-25.1256E-06
+83.9340E-06,-291.4573E-06
+84.1840E-06,+211.0553E-06
+84.4340E-06,-95.4774E-06
+84.6840E-06,+346.7337E-06
+84.9340E-06,+0.0E+00
+85.1840E-06,-55.2764E-06
+85.4340E-06,-30.1508E-06
+85.6840E-06,+271.3568E-06
+85.9340E-06,-15.0754E-06
+86.1840E-06,-50.2513E-06
+86.4340E-06,+190.9548E-06
+86.6840E-06,-25.1256E-06
+86.9340E-06,-145.7286E-06
+87.1840E-06,+211.0553E-06
+87.4340E-06,+256.2814E-06
+87.6840E-06,+135.6784E-06
+87.9340E-06,-60.3015E-06
+88.1840E-06,-55.2764E-06
+88.4340E-06,-190.9548E-06
+88.6840E-06,-296.4824E-06
+88.9340E-06,-145.7286E-06
+89.1840E-06,-211.0553E-06
+89.4340E-06,-95.4774E-06
+89.6840E-06,-135.6784E-06
+89.9340E-06,-160.8040E-06
+90.1840E-06,-371.8593E-06
+90.4340E-06,+30.1508E-06
+90.6840E-06,-185.9296E-06
+90.9340E-06,+291.4573E-06
+91.1840E-06,+105.5276E-06
+91.4340E-06,+160.8040E-06
+91.6840E-06,-185.9296E-06
+91.9340E-06,+321.6080E-06
+92.1840E-06,-371.8593E-06
+92.4340E-06,+0.0E+00
+92.6840E-06,+50.2513E-06
+92.9340E-06,-276.3819E-06
+93.1840E-06,+0.0E+00
+93.4340E-06,+190.9548E-06
+93.6840E-06,+25.1256E-06
+93.9340E-06,+30.1508E-06
+94.1840E-06,+105.5276E-06
+94.4340E-06,+190.9548E-06
+94.6840E-06,-135.6784E-06
+94.9340E-06,-145.7286E-06
+95.1840E-06,+0.0E+00
+95.4340E-06,+95.4774E-06
+95.6840E-06,-110.5528E-06
+95.9340E-06,-130.6533E-06
+96.1840E-06,-160.8040E-06
+96.4340E-06,+386.9347E-06
+96.6840E-06,-110.5528E-06
+96.9340E-06,+160.8040E-06
+97.1840E-06,-105.5276E-06
+97.4340E-06,-160.8040E-06
+97.6840E-06,-135.6784E-06
+97.9340E-06,+45.2261E-06
+98.1840E-06,-266.3317E-06
+98.4340E-06,+30.1508E-06
+98.6840E-06,-50.2513E-06
+98.9340E-06,-145.7286E-06
+99.1840E-06,+55.2764E-06
+99.4340E-06,+0.0E+00
+99.6840E-06,+185.9296E-06
+99.9340E-06,+160.8040E-06
+100.1840E-06,-216.0804E-06
+100.4340E-06,+65.3266E-06
+100.6840E-06,-135.6784E-06
+100.9340E-06,-306.5327E-06
+101.1840E-06,-110.5528E-06
+101.4340E-06,+0.0E+00
+101.6840E-06,-195.9799E-06
+101.9340E-06,-130.6533E-06
+102.1840E-06,-211.0553E-06
+102.4340E-06,-30.1508E-06
+102.6840E-06,-25.1256E-06
+102.9340E-06,+175.8794E-06
+103.1840E-06,-55.2764E-06
+103.4340E-06,+195.9799E-06
+103.6840E-06,+0.0E+00
+103.9340E-06,+175.8794E-06
+104.1840E-06,-211.0553E-06
+104.4340E-06,+130.6533E-06
+104.6840E-06,+25.1256E-06
+104.9340E-06,+130.6533E-06
+105.1840E-06,+376.8844E-06
+105.4340E-06,-95.4774E-06
+105.6840E-06,+25.1256E-06
+105.9340E-06,+30.1508E-06
+106.1840E-06,-160.8040E-06
+106.4340E-06,-30.1508E-06
+106.6840E-06,-271.3568E-06
+106.9340E-06,-15.0754E-06
+107.1840E-06,-266.3317E-06
+107.4340E-06,+95.4774E-06
+107.6840E-06,-135.6784E-06
+107.9340E-06,+0.0E+00
+108.1840E-06,+427.1357E-06
+108.4340E-06,-190.9548E-06
+108.6840E-06,-110.5528E-06
+108.9340E-06,-145.7286E-06
+109.1840E-06,-50.2513E-06
+109.4340E-06,-190.9548E-06
+109.6840E-06,-60.3015E-06
+109.9340E-06,-30.1508E-06
+110.1840E-06,-316.5829E-06
+110.4340E-06,+30.1508E-06
+110.6840E-06,-135.6784E-06
+110.9340E-06,-291.4573E-06
+111.1840E-06,+55.2764E-06
+111.4340E-06,-100.5025E-06
+111.6840E-06,+271.3568E-06
+111.9340E-06,+15.0754E-06
+112.1840E-06,+50.2513E-06
+112.4340E-06,+125.6281E-06
+112.6840E-06,-135.6784E-06
+112.9340E-06,-145.7286E-06
+113.1840E-06,+105.5276E-06
+113.4340E-06,+226.1307E-06
+113.6840E-06,-25.1256E-06
+113.9340E-06,-145.7286E-06
+114.1840E-06,-50.2513E-06
+114.4340E-06,+190.9548E-06
+114.6840E-06,-135.6784E-06
+114.9340E-06,+15.0754E-06
+115.1840E-06,-105.5276E-06
+115.4340E-06,+160.8040E-06
+115.6840E-06,-25.1256E-06
+115.9340E-06,+130.6533E-06
+116.1840E-06,-216.0804E-06
+116.4340E-06,-5.0251E-06
+116.6840E-06,+185.9296E-06
+116.9340E-06,+15.0754E-06
+117.1840E-06,+211.0553E-06
+117.4340E-06,+95.4774E-06
+117.6840E-06,+135.6784E-06
+117.9340E-06,+115.5779E-06
+118.1840E-06,+105.5276E-06
+118.4340E-06,+160.8040E-06
+118.6840E-06,-50.2513E-06
+118.9340E-06,+30.1508E-06
+119.1840E-06,-316.5829E-06
+119.4340E-06,+0.0E+00
+119.6840E-06,-160.8040E-06
+119.9340E-06,-15.0754E-06
+120.1840E-06,-266.3317E-06
+120.4340E-06,+95.4774E-06
+120.6840E-06,+0.0E+00
+120.9340E-06,+306.5327E-06
+121.1840E-06,-160.8040E-06
+121.4340E-06,+160.8040E-06
+121.6840E-06,+160.8040E-06
+121.9340E-06,+160.8040E-06
+122.1840E-06,+211.0553E-06
+122.4340E-06,-226.1307E-06
+122.6840E-06,+160.8040E-06
+122.9340E-06,+130.6533E-06
+123.1840E-06,-160.8040E-06
+123.4340E-06,-190.9548E-06
+123.6840E-06,+25.1256E-06
+123.9340E-06,+321.6080E-06
+124.1840E-06,-216.0804E-06
+124.4340E-06,-226.1307E-06
+124.6840E-06,+135.6784E-06
+124.9340E-06,+160.8040E-06
+125.1840E-06,+55.2764E-06
+125.4340E-06,+95.4774E-06
+125.6840E-06,+160.8040E-06
+125.9340E-06,+145.7286E-06
+126.1840E-06,+110.5528E-06
+126.4340E-06,+0.0E+00
+126.6840E-06,-135.6784E-06
+126.9340E-06,+15.0754E-06
+127.1840E-06,-55.2764E-06
+127.4340E-06,+130.6533E-06
+127.6840E-06,+0.0E+00
+127.9340E-06,-291.4573E-06
+128.1840E-06,+165.8291E-06
+128.4340E-06,+95.4774E-06
+128.6840E-06,+135.6784E-06
+128.9340E-06,+130.6533E-06
+129.1840E-06,+105.5276E-06
+129.4340E-06,+95.4774E-06
+129.6840E-06,+0.0E+00
+129.9340E-06,+291.4573E-06
+130.1840E-06,+0.0E+00
+130.4340E-06,-190.9548E-06
+130.6840E-06,-381.9095E-06
+130.9340E-06,-115.5779E-06
+131.1840E-06,+266.3317E-06
+131.4340E-06,-65.3266E-06
+131.6840E-06,+0.0E+00
+131.9340E-06,-261.3065E-06
+132.1840E-06,-211.0553E-06
+132.4340E-06,+190.9548E-06
+132.6840E-06,-25.1256E-06
+132.9340E-06,-30.1508E-06
+133.1840E-06,-160.8040E-06
+133.4340E-06,+321.6080E-06
+133.6840E-06,-321.6080E-06
+133.9340E-06,-145.7286E-06
+134.1840E-06,-427.1357E-06
+134.4340E-06,+0.0E+00
+134.6840E-06,+110.5528E-06
+134.9340E-06,+15.0754E-06
+135.1840E-06,+266.3317E-06
+135.4340E-06,-482.4121E-06
+135.6840E-06,-271.3568E-06
+135.9340E-06,-15.0754E-06
+136.1840E-06,-266.3317E-06
+136.4340E-06,+65.3266E-06
+136.6840E-06,-160.8040E-06
+136.9340E-06,+145.7286E-06
+137.1840E-06,+105.5276E-06
+137.4340E-06,-65.3266E-06
+137.6840E-06,+246.2312E-06
+137.9340E-06,+130.6533E-06
+138.1840E-06,+105.5276E-06
+138.4340E-06,-65.3266E-06
+138.6840E-06,+185.9296E-06
+138.9340E-06,+3.4070351E-03
+139.1840E-06,-648.2412E-06
+139.4340E-06,-964.8241E-06
+139.6840E-06,+432.1608E-06
+139.9340E-06,+497.4874E-06
+140.1840E-06,+55.2764E-06
+140.4340E-06,-547.7387E-06
+140.6840E-06,-25.1256E-06
+140.9340E-06,+175.8794E-06
+141.1840E-06,+155.7789E-06
+141.4340E-06,-226.1307E-06
+141.6840E-06,+0.0E+00
+141.9340E-06,+321.6080E-06
+142.1840E-06,-266.3317E-06
+142.4340E-06,+0.0E+00
+142.6840E-06,+396.9849E-06
+142.9340E-06,+0.0E+00
+143.1840E-06,-216.0804E-06
+143.4340E-06,-125.6281E-06
+143.6840E-06,+321.6080E-06
+143.9340E-06,-15.0754E-06
+144.1840E-06,+165.8291E-06
+144.4340E-06,+0.0E+00
+144.6840E-06,-25.1256E-06
+144.9340E-06,-175.8794E-06
+145.1840E-06,+50.2513E-06
+145.4340E-06,+256.2814E-06
+145.6840E-06,-211.0553E-06
+145.9340E-06,-175.8794E-06
+146.1840E-06,+105.5276E-06
+146.4340E-06,+95.4774E-06
+146.6840E-06,+160.8040E-06
+146.9340E-06,-276.3819E-06
+147.1840E-06,-110.5528E-06
+147.4340E-06,-130.6533E-06
+147.6840E-06,+296.4824E-06
+147.9340E-06,-130.6533E-06
+148.1840E-06,+105.5276E-06
+148.4340E-06,+65.3266E-06
+148.6840E-06,-110.5528E-06
+148.9340E-06,-160.8040E-06
+149.1840E-06,+427.1357E-06
+149.4340E-06,+0.0E+00
+149.6840E-06,-85.4271E-06
+149.9340E-06,+175.8794E-06
+150.1840E-06,+0.0E+00
+150.4340E-06,-95.4774E-06
+150.6840E-06,+271.3568E-06
+150.9340E-06,+30.1508E-06
+151.1840E-06,+160.8040E-06
+151.4340E-06,+100.5025E-06
+151.6840E-06,+135.6784E-06
+151.9340E-06,+145.7286E-06
+152.1840E-06,+110.5528E-06
+152.4340E-06,-95.4774E-06
+152.6840E-06,+135.6784E-06
+152.9340E-06,-15.0754E-06
+153.1840E-06,-55.2764E-06
+153.4340E-06,-160.8040E-06
+153.6840E-06,-296.4824E-06
+153.9340E-06,+145.7286E-06
+154.1840E-06,+0.0E+00
+154.4340E-06,-100.5025E-06
+154.6840E-06,-110.5528E-06
+154.9340E-06,-145.7286E-06
+155.1840E-06,-50.2513E-06
+155.4340E-06,+130.6533E-06
+155.6840E-06,+0.0E+00
+155.9340E-06,+306.5327E-06
+156.1840E-06,+0.0E+00
+156.4340E-06,+0.0E+00
+156.6840E-06,-135.6784E-06
+156.9340E-06,+145.7286E-06
+157.1840E-06,-105.5276E-06
+157.4340E-06,+0.0E+00
+157.6840E-06,+110.5528E-06
+157.9340E-06,+175.8794E-06
+158.1840E-06,+0.0E+00
+158.4340E-06,-125.6281E-06
+158.6840E-06,-85.4271E-06
+158.9340E-06,-407.0352E-06
+159.1840E-06,+105.5276E-06
+159.4340E-06,+190.9548E-06
+159.6840E-06,+346.7337E-06
+159.9340E-06,+291.4573E-06
+160.1840E-06,+216.0804E-06
+160.4340E-06,+65.3266E-06
+160.6840E-06,+25.1256E-06
+160.9340E-06,-336.6834E-06
+161.1840E-06,+0.0E+00
+161.4340E-06,-95.4774E-06
+161.6840E-06,-25.1256E-06
+161.9340E-06,-15.0754E-06
+162.1840E-06,+105.5276E-06
+162.4340E-06,-95.4774E-06
+162.6840E-06,+160.8040E-06
+162.9340E-06,+15.0754E-06
+163.1840E-06,+105.5276E-06
+163.4340E-06,+0.0E+00
+163.6840E-06,+25.1256E-06
+163.9340E-06,+422.1105E-06
+164.1840E-06,+271.3568E-06
+164.4340E-06,-65.3266E-06
+164.6840E-06,-321.6080E-06
+164.9340E-06,-115.5779E-06
+165.1840E-06,+55.2764E-06
+165.4340E-06,+0.0E+00
+165.6840E-06,-432.1608E-06
+165.9340E-06,-321.6080E-06
+166.1840E-06,+160.8040E-06
+166.4340E-06,-160.8040E-06
+166.6840E-06,+160.8040E-06
+166.9340E-06,+246.2312E-06
+167.1840E-06,+0.0E+00
+167.4340E-06,-30.1508E-06
+167.6840E-06,-160.8040E-06
+167.9340E-06,-15.0754E-06
+168.1840E-06,+206.0301E-06
+168.4340E-06,+130.6533E-06
+168.6840E-06,+135.6784E-06
+168.9340E-06,+0.0E+00
+169.1840E-06,+50.2513E-06
+169.4340E-06,+160.8040E-06
+169.6840E-06,+296.4824E-06
+169.9340E-06,-145.7286E-06
+170.1840E-06,+55.2764E-06
+170.4340E-06,+160.8040E-06
+170.6840E-06,+50.2513E-06
+170.9340E-06,+190.9548E-06
+171.1840E-06,-105.5276E-06
+171.4340E-06,+0.0E+00
+171.6840E-06,+211.0553E-06
+171.9340E-06,+15.0754E-06
+172.1840E-06,-55.2764E-06
+172.4340E-06,-30.1508E-06
+172.6840E-06,+185.9296E-06
+172.9340E-06,-306.5327E-06
+173.1840E-06,-155.7789E-06
+173.4340E-06,+321.6080E-06
+173.6840E-06,-2.4874372E-03
+173.9340E-06,+1.3015075E-03
+174.1840E-06,+477.3869E-06
+174.4340E-06,-964.8241E-06
+174.6840E-06,-321.6080E-06
+174.9340E-06,+658.2915E-06
+175.1840E-06,+55.2764E-06
+175.4340E-06,+30.1508E-06
+175.6840E-06,+135.6784E-06
+175.9340E-06,+145.7286E-06
+176.1840E-06,+105.5276E-06
+176.4340E-06,+95.4774E-06
+176.6840E-06,+185.9296E-06
+176.9340E-06,+145.7286E-06
+177.1840E-06,-55.2764E-06
+177.4340E-06,-30.1508E-06
+177.6840E-06,-135.6784E-06
+177.9340E-06,+306.5327E-06
+178.1840E-06,-55.2764E-06
+178.4340E-06,-386.9347E-06
+178.6840E-06,+85.4271E-06
+178.9340E-06,+160.8040E-06
+179.1840E-06,+266.3317E-06
+179.4340E-06,+256.2814E-06
+179.6840E-06,-75.3769E-06
+179.9340E-06,-175.8794E-06
+180.1840E-06,-216.0804E-06
+180.4340E-06,+95.4774E-06
+180.6840E-06,+25.1256E-06
+180.9340E-06,+291.4573E-06
+181.1840E-06,-165.8291E-06
+181.4340E-06,+160.8040E-06
+181.6840E-06,+211.0553E-06
+181.9340E-06,-30.1508E-06
+182.1840E-06,+55.2764E-06
+182.4340E-06,+35.1759E-06
+182.6840E-06,+0.0E+00
+182.9340E-06,+160.8040E-06
+183.1840E-06,+105.5276E-06
+183.4340E-06,-417.0854E-06
+183.6840E-06,-185.9296E-06
+183.9340E-06,+160.8040E-06
+184.1840E-06,+266.3317E-06
+184.4340E-06,+256.2814E-06
+184.6840E-06,+0.0E+00
+184.9340E-06,-145.7286E-06
+185.1840E-06,+266.3317E-06
+185.4340E-06,-30.1508E-06
+185.6840E-06,+457.2864E-06
+185.9340E-06,+145.7286E-06
+186.1840E-06,-155.7789E-06
+186.4340E-06,+65.3266E-06
+186.6840E-06,-85.4271E-06
+186.9340E-06,-160.8040E-06
+187.1840E-06,-427.1357E-06
+187.4340E-06,+321.6080E-06
+187.6840E-06,-160.8040E-06
+187.9340E-06,-306.5327E-06
+188.1840E-06,-110.5528E-06
+188.4340E-06,+30.1508E-06
+188.6840E-06,+296.4824E-06
+188.9340E-06,+0.0E+00
+189.1840E-06,+110.5528E-06
+189.4340E-06,+65.3266E-06
+189.6840E-06,-160.8040E-06
+189.9340E-06,-306.5327E-06
+190.1840E-06,-160.8040E-06
+190.4340E-06,-65.3266E-06
+190.6840E-06,-25.1256E-06
+190.9340E-06,-145.7286E-06
+191.1840E-06,+105.5276E-06
+191.4340E-06,+30.1508E-06
+191.6840E-06,-296.4824E-06
+191.9340E-06,-115.5779E-06
+192.1840E-06,-261.3065E-06
+192.4340E-06,-160.8040E-06
+192.6840E-06,-321.6080E-06
+192.9340E-06,+145.7286E-06
+193.1840E-06,-321.6080E-06
+193.4340E-06,-160.8040E-06
+193.6840E-06,-271.3568E-06
+193.9340E-06,-291.4573E-06
+194.1840E-06,-105.5276E-06
+194.4340E-06,-95.4774E-06
+194.6840E-06,-135.6784E-06
+194.9340E-06,-160.8040E-06
+195.1840E-06,-321.6080E-06
+195.4340E-06,-160.8040E-06
+195.6840E-06,-482.4121E-06
+195.9340E-06,+291.4573E-06
+196.1840E-06,+110.5528E-06
+196.4340E-06,+286.4322E-06
+196.6840E-06,+160.8040E-06
+196.9340E-06,+190.9548E-06
+197.1840E-06,-105.5276E-06
+197.4340E-06,-643.2161E-06
+197.6840E-06,+85.4271E-06
+197.9340E-06,-130.6533E-06
+198.1840E-06,+55.2764E-06
+198.4340E-06,-60.3015E-06
+198.6840E-06,-160.8040E-06
+198.9340E-06,-437.1859E-06
+199.1840E-06,+105.5276E-06
+199.4340E-06,+190.9548E-06
+199.6840E-06,+135.6784E-06
+199.9340E-06,+0.0E+00
+200.1840E-06,-105.5276E-06
+200.4340E-06,-226.1307E-06
+200.6840E-06,+271.3568E-06
+200.9340E-06,-15.0754E-06
+201.1840E-06,+55.2764E-06
+201.4340E-06,-30.1508E-06
+201.6840E-06,+246.2312E-06
+201.9340E-06,+160.8040E-06
+202.1840E-06,+211.0553E-06
+202.4340E-06,+286.4322E-06
+202.6840E-06,-25.1256E-06
+202.9340E-06,+15.0754E-06
+203.1840E-06,+0.0E+00
+203.4340E-06,-190.9548E-06
+203.6840E-06,-135.6784E-06
+203.9340E-06,-160.8040E-06
+204.1840E-06,-105.5276E-06
+204.4340E-06,-130.6533E-06
+204.6840E-06,+0.0E+00
+204.9340E-06,+30.1508E-06
+205.1840E-06,-105.5276E-06
+205.4340E-06,-160.8040E-06
+205.6840E-06,-50.2513E-06
+205.9340E-06,-160.8040E-06
+206.1840E-06,+160.8040E-06
+206.4340E-06,+130.6533E-06
+206.6840E-06,+457.2864E-06
+206.9340E-06,+15.0754E-06
+207.1840E-06,-321.6080E-06
+207.4340E-06,-160.8040E-06
+207.6840E-06,-50.2513E-06
+207.9340E-06,-130.6533E-06
+208.1840E-06,+5.0251E-06
+208.4340E-06,+65.3266E-06
+208.6840E-06,+25.1256E-06
+208.9340E-06,+30.1508E-06
+209.1840E-06,+160.8040E-06
+209.4340E-06,+125.6281E-06
+209.6840E-06,+0.0E+00
+209.9340E-06,+291.4573E-06
+210.1840E-06,+50.2513E-06
+210.4340E-06,+0.0E+00
+210.6840E-06,-296.4824E-06
+210.9340E-06,+130.6533E-06
+211.1840E-06,-50.2513E-06
+211.4340E-06,+65.3266E-06
+211.6840E-06,+50.2513E-06
+211.9340E-06,+30.1508E-06
+212.1840E-06,+5.0251E-06
+212.4340E-06,-221.1055E-06
+212.6840E-06,-160.8040E-06
+212.9340E-06,+30.1508E-06
+213.1840E-06,+321.6080E-06
+213.4340E-06,-35.1759E-06
+213.6840E-06,-160.8040E-06
+213.9340E-06,-130.6533E-06
+214.1840E-06,-266.3317E-06
+214.4340E-06,-65.3266E-06
+214.6840E-06,+246.2312E-06
+214.9340E-06,-30.1508E-06
+215.1840E-06,-216.0804E-06
+215.4340E-06,+226.1307E-06
+215.6840E-06,+296.4824E-06
+215.9340E-06,+190.9548E-06
+216.1840E-06,+55.2764E-06
+216.4340E-06,-160.8040E-06
+216.6840E-06,-321.6080E-06
+216.9340E-06,+30.1508E-06
+217.1840E-06,+110.5528E-06
+217.4340E-06,+321.6080E-06
+217.6840E-06,+135.6784E-06
+217.9340E-06,-160.8040E-06
+218.1840E-06,+160.8040E-06
+218.4340E-06,+0.0E+00
+218.6840E-06,+135.6784E-06
+218.9340E-06,-160.8040E-06
+219.1840E-06,+211.0553E-06
+219.4340E-06,+0.0E+00
+219.6840E-06,+0.0E+00
+219.9340E-06,+291.4573E-06
+220.1840E-06,-50.2513E-06
+220.4340E-06,-160.8040E-06
+220.6840E-06,+0.0E+00
+220.9340E-06,-145.7286E-06
+221.1840E-06,+0.0E+00
+221.4340E-06,-35.1759E-06
+221.6840E-06,+271.3568E-06
+221.9340E-06,+15.0754E-06
+222.1840E-06,-427.1357E-06
+222.4340E-06,+30.1508E-06
+222.6840E-06,-135.6784E-06
+222.9340E-06,+0.0E+00
+223.1840E-06,-160.8040E-06
+223.4340E-06,-95.4774E-06
+223.6840E-06,+0.0E+00
+223.9340E-06,-15.0754E-06
+224.1840E-06,-50.2513E-06
+224.4340E-06,+0.0E+00
+224.6840E-06,-135.6784E-06
+224.9340E-06,-130.6533E-06
+225.1840E-06,-50.2513E-06
+225.4340E-06,+65.3266E-06
+225.6840E-06,-110.5528E-06
+225.9340E-06,+115.5779E-06
+226.1840E-06,+160.8040E-06
+226.4340E-06,-386.9347E-06
+226.6840E-06,-50.2513E-06
+226.9340E-06,+175.8794E-06
+227.1840E-06,+160.8040E-06
+227.4340E-06,+130.6533E-06
+227.6840E-06,-296.4824E-06
+227.9340E-06,-15.0754E-06
+228.1840E-06,+316.5829E-06
+228.4340E-06,+5.0251E-06
+228.6840E-06,-296.4824E-06
+228.9340E-06,+0.0E+00
+229.1840E-06,-321.6080E-06
+229.4340E-06,-95.4774E-06
+229.6840E-06,-160.8040E-06
+229.9340E-06,-291.4573E-06
+230.1840E-06,-50.2513E-06
+230.4340E-06,-160.8040E-06
+230.6840E-06,-185.9296E-06
+230.9340E-06,+321.6080E-06
+231.1840E-06,-321.6080E-06
+231.4340E-06,+0.0E+00
+231.6840E-06,+25.1256E-06
+231.9340E-06,+291.4573E-06
+232.1840E-06,-55.2764E-06
+232.4340E-06,+130.6533E-06
+232.6840E-06,-346.7337E-06
+232.9340E-06,+30.1508E-06
+233.1840E-06,-105.5276E-06
+233.4340E-06,-160.8040E-06
+233.6840E-06,-135.6784E-06
+233.9340E-06,-306.5327E-06
+234.1840E-06,+50.2513E-06
+234.4340E-06,+190.9548E-06
+234.6840E-06,+25.1256E-06
+234.9340E-06,-306.5327E-06
+235.1840E-06,-211.0553E-06
+235.4340E-06,-65.3266E-06
+235.6840E-06,+160.8040E-06
+235.9340E-06,-30.1508E-06
+236.1840E-06,-55.2764E-06
+236.4340E-06,+160.8040E-06
+236.6840E-06,-85.4271E-06
+236.9340E-06,-160.8040E-06
+237.1840E-06,-110.5528E-06
+237.4340E-06,+65.3266E-06
+237.6840E-06,-110.5528E-06
+237.9340E-06,-160.8040E-06
+238.1840E-06,-50.2513E-06
+238.4340E-06,+0.0E+00
+238.6840E-06,-50.2513E-06
+238.9340E-06,+15.0754E-06
+239.1840E-06,-50.2513E-06
+239.4340E-06,+95.4774E-06
+239.6840E-06,-185.9296E-06
+239.9340E-06,+130.6533E-06
+240.1840E-06,+0.0E+00
+240.4340E-06,-95.4774E-06
+240.6840E-06,+160.8040E-06
+240.9340E-06,-306.5327E-06
+241.1840E-06,+50.2513E-06
+241.4340E-06,+35.1759E-06
+241.6840E-06,+185.9296E-06
+241.9340E-06,+175.8794E-06
+242.1840E-06,+0.0E+00
+242.4340E-06,+0.0E+00
+242.6840E-06,+50.2513E-06
+242.9340E-06,-145.7286E-06
+243.1840E-06,-206.0301E-06
+243.4340E-06,-195.9799E-06
+243.6840E-06,-50.2513E-06
+243.9340E-06,+0.0E+00
+244.1840E-06,-50.2513E-06
+244.4340E-06,+226.1307E-06
+244.6840E-06,+135.6784E-06
+244.9340E-06,+467.3367E-06
+245.1840E-06,+105.5276E-06
+245.4340E-06,+160.8040E-06
+245.6840E-06,-135.6784E-06
+245.9340E-06,-130.6533E-06
+246.1840E-06,-50.2513E-06
+246.4340E-06,+160.8040E-06
+246.6840E-06,+160.8040E-06
+246.9340E-06,-452.2613E-06
+247.1840E-06,+5.0251E-06
+247.4340E-06,+125.6281E-06
+247.6840E-06,-346.7337E-06
+247.9340E-06,+30.1508E-06
+248.1840E-06,+0.0E+00
+248.4340E-06,-125.6281E-06
+248.6840E-06,+0.0E+00
+248.9340E-06,+145.7286E-06
+249.1840E-06,+316.5829E-06
+249.4340E-06,+0.0E+00
+249.6840E-06,-110.5528E-06
+249.9340E-06,-321.6080E-06
+250.1840E-06,-427.1357E-06
+250.4340E-06,-160.8040E-06
