x-axis,2
second,Volt
-316.00E-09,
-315.00E-09,-482.41206E-06
-314.00E-09,-321.60804E-06
-313.00E-09,-482.41206E-06
-312.00E-09,-301.50753E-06
-311.00E-09,-160.80402E-06
-310.00E-09,+0.0E+00
-309.00E-09,-160.80402E-06
-308.00E-09,-160.80402E-06
-307.00E-09,-180.90452E-06
-306.00E-09,-301.50753E-06
-305.00E-09,-160.80402E-06
-304.00E-09,+0.0E+00
-303.00E-09,+0.0E+00
-302.00E-09,+160.80402E-06
-301.00E-09,+301.50753E-06
-300.00E-09,+140.70352E-06
-299.00E-09,+0.0E+00
-298.00E-09,-160.80402E-06
-297.00E-09,+0.0E+00
-296.00E-09,+0.0E+00
-295.00E-09,+0.0E+00
-294.00E-09,-160.80402E-06
-293.00E-09,+0.0E+00
-292.00E-09,+160.80402E-06
-291.00E-09,+0.0E+00
-290.00E-09,+0.0E+00
-289.00E-09,+0.0E+00
-288.00E-09,-160.80402E-06
-287.00E-09,-301.50753E-06
-286.00E-09,-140.70352E-06
-285.00E-09,+321.60804E-06
-284.00E-09,+301.50753E-06
-283.00E-09,+160.80402E-06
-282.00E-09,+321.60804E-06
-281.00E-09,+140.70352E-06
-280.00E-09,-160.80402E-06
-279.00E-09,-160.80402E-06
-278.00E-09,-160.80402E-06
-277.00E-09,+0.0E+00
-276.00E-09,-20.10050E-06
-275.00E-09,-140.70352E-06
-274.00E-09,+0.0E+00
-273.00E-09,-160.80402E-06
-272.00E-09,-321.60804E-06
-271.00E-09,-160.80402E-06
-270.00E-09,+0.0E+00
-269.00E-09,-180.90452E-06
-268.00E-09,-321.60804E-06
-267.00E-09,-321.60804E-06
-266.00E-09,-160.80402E-06
-265.00E-09,+0.0E+00
-264.00E-09,-160.80402E-06
-263.00E-09,-160.80402E-06
-262.00E-09,-20.10050E-06
-261.00E-09,-180.90452E-06
-260.00E-09,-160.80402E-06
-259.00E-09,-321.60804E-06
-258.00E-09,-321.60804E-06
-257.00E-09,-321.60804E-06
-256.00E-09,-160.80402E-06
-255.00E-09,-160.80402E-06
-254.00E-09,-160.80402E-06
-253.00E-09,+0.0E+00
-252.00E-09,+160.80402E-06
-251.00E-09,-160.80402E-06
-250.00E-09,-321.60804E-06
-249.00E-09,-321.60804E-06
-248.00E-09,-160.80402E-06
-247.00E-09,+0.0E+00
-246.00E-09,-160.80402E-06
-245.00E-09,-160.80402E-06
-244.00E-09,+0.0E+00
-243.00E-09,-160.80402E-06
-242.00E-09,-160.80402E-06
-241.00E-09,+0.0E+00
-240.00E-09,-160.80402E-06
-239.00E-09,-160.80402E-06
-238.00E-09,-160.80402E-06
-237.00E-09,-160.80402E-06
-236.00E-09,-160.80402E-06
-235.00E-09,-160.80402E-06
-234.00E-09,+20.10050E-06
-233.00E-09,+321.60804E-06
-232.00E-09,+160.80402E-06
-231.00E-09,+160.80402E-06
-230.00E-09,+160.80402E-06
-229.00E-09,+140.70352E-06
-228.00E-09,-160.80402E-06
-227.00E-09,-160.80402E-06
-226.00E-09,-160.80402E-06
-225.00E-09,-160.80402E-06
-224.00E-09,+0.0E+00
-223.00E-09,-180.90452E-06
-222.00E-09,-341.70854E-06
-221.00E-09,-482.41206E-06
-220.00E-09,-462.31155E-06
-219.00E-09,-160.80402E-06
-218.00E-09,-321.60804E-06
-217.00E-09,-482.41206E-06
-216.00E-09,-462.31155E-06
-215.00E-09,-301.50753E-06
-214.00E-09,-160.80402E-06
-213.00E-09,+0.0E+00
-212.00E-09,+0.0E+00
-211.00E-09,+0.0E+00
-210.00E-09,-160.80402E-06
-209.00E-09,+0.0E+00
-208.00E-09,+160.80402E-06
-207.00E-09,+0.0E+00
-206.00E-09,+0.0E+00
-205.00E-09,+160.80402E-06
-204.00E-09,-20.10050E-06
-203.00E-09,-180.90452E-06
-202.00E-09,-482.41206E-06
-201.00E-09,-321.60804E-06
-200.00E-09,-160.80402E-06
-199.00E-09,-321.60804E-06
-198.00E-09,-341.70854E-06
-197.00E-09,-482.41206E-06
-196.00E-09,-321.60804E-06
-195.00E-09,-160.80402E-06
-194.00E-09,-160.80402E-06
-193.00E-09,-160.80402E-06
-192.00E-09,-160.80402E-06
-191.00E-09,+0.0E+00
-190.00E-09,-160.80402E-06
-189.00E-09,-321.60804E-06
-188.00E-09,-140.70352E-06
-187.00E-09,+160.80402E-06
-186.00E-09,+160.80402E-06
-185.00E-09,+321.60804E-06
-184.00E-09,+301.50753E-06
-183.00E-09,+20.10050E-06
-182.00E-09,+160.80402E-06
-181.00E-09,+321.60804E-06
-180.00E-09,+482.41206E-06
-179.00E-09,+301.50753E-06
-178.00E-09,+0.0E+00
-177.00E-09,+0.0E+00
-176.00E-09,+160.80402E-06
-175.00E-09,+321.60804E-06
-174.00E-09,+321.60804E-06
-173.00E-09,+301.50753E-06
-172.00E-09,+160.80402E-06
-171.00E-09,+0.0E+00
-170.00E-09,+20.10050E-06
-169.00E-09,+321.60804E-06
-168.00E-09,+301.50753E-06
-167.00E-09,+160.80402E-06
-166.00E-09,+160.80402E-06
-165.00E-09,+301.50753E-06
-164.00E-09,+321.60804E-06
-163.00E-09,+482.41206E-06
-162.00E-09,+482.41206E-06
-161.00E-09,+321.60804E-06
-160.00E-09,+321.60804E-06
-159.00E-09,+482.41206E-06
-158.00E-09,+321.60804E-06
-157.00E-09,+321.60804E-06
-156.00E-09,+160.80402E-06
-155.00E-09,+160.80402E-06
-154.00E-09,+321.60804E-06
-153.00E-09,+321.60804E-06
-152.00E-09,+321.60804E-06
-151.00E-09,+482.41206E-06
-150.00E-09,+482.41206E-06
-149.00E-09,+482.41206E-06
-148.00E-09,+321.60804E-06
-147.00E-09,+321.60804E-06
-146.00E-09,+341.70854E-06
-145.00E-09,+321.60804E-06
-144.00E-09,+482.41206E-06
-143.00E-09,+502.51256E-06
-142.00E-09,+643.21607E-06
-141.00E-09,+623.11557E-06
-140.00E-09,+482.41206E-06
-139.00E-09,+482.41206E-06
-138.00E-09,+482.41206E-06
-137.00E-09,+321.60804E-06
-136.00E-09,+321.60804E-06
-135.00E-09,+321.60804E-06
-134.00E-09,+160.80402E-06
-133.00E-09,+160.80402E-06
-132.00E-09,+321.60804E-06
-131.00E-09,+321.60804E-06
-130.00E-09,+321.60804E-06
-129.00E-09,+321.60804E-06
-128.00E-09,+321.60804E-06
-127.00E-09,+160.80402E-06
-126.00E-09,+160.80402E-06
-125.00E-09,+160.80402E-06
-124.00E-09,+160.80402E-06
-123.00E-09,+160.80402E-06
-122.00E-09,+341.70854E-06
-121.00E-09,+462.31155E-06
-120.00E-09,+321.60804E-06
-119.00E-09,+482.41206E-06
-118.00E-09,+482.41206E-06
-117.00E-09,+643.21607E-06
-116.00E-09,+482.41206E-06
-115.00E-09,+321.60804E-06
-114.00E-09,+321.60804E-06
-113.00E-09,+160.80402E-06
-112.00E-09,+482.41206E-06
-111.00E-09,+321.60804E-06
-110.00E-09,+160.80402E-06
-109.00E-09,+160.80402E-06
-108.00E-09,+160.80402E-06
-107.00E-09,+160.80402E-06
-106.00E-09,+0.0E+00
-105.00E-09,+20.10050E-06
-104.00E-09,+0.0E+00
-103.00E-09,-160.80402E-06
-102.00E-09,+0.0E+00
-101.00E-09,-20.10050E-06
-100.00E-09,+20.10050E-06
-99.00E-09,+321.60804E-06
-98.00E-09,+301.50753E-06
-97.00E-09,+180.90452E-06
-96.00E-09,+482.41206E-06
-95.00E-09,+482.41206E-06
-94.00E-09,+482.41206E-06
-93.00E-09,+482.41206E-06
-92.00E-09,+321.60804E-06
-91.00E-09,+321.60804E-06
-90.00E-09,+160.80402E-06
-89.00E-09,-160.80402E-06
-88.00E-09,-160.80402E-06
-87.00E-09,+20.10050E-06
-86.00E-09,+160.80402E-06
-85.00E-09,+160.80402E-06
-84.00E-09,+160.80402E-06
-83.00E-09,+160.80402E-06
-82.00E-09,+0.0E+00
-81.00E-09,+0.0E+00
-80.00E-09,+0.0E+00
-79.00E-09,+0.0E+00
-78.00E-09,+0.0E+00
-77.00E-09,-20.10050E-06
-76.00E-09,+0.0E+00
-75.00E-09,+0.0E+00
-74.00E-09,+0.0E+00
-73.00E-09,+160.80402E-06
-72.00E-09,+160.80402E-06
-71.00E-09,+341.70854E-06
-70.00E-09,+321.60804E-06
-69.00E-09,+160.80402E-06
-68.00E-09,+160.80402E-06
-67.00E-09,+160.80402E-06
-66.00E-09,+0.0E+00
-65.00E-09,-160.80402E-06
-64.00E-09,-160.80402E-06
-63.00E-09,-160.80402E-06
-62.00E-09,-160.80402E-06
-61.00E-09,-160.80402E-06
-60.00E-09,-160.80402E-06
-59.00E-09,-160.80402E-06
-58.00E-09,+0.0E+00
-57.00E-09,+160.80402E-06
-56.00E-09,+140.70352E-06
-55.00E-09,+0.0E+00
-54.00E-09,+0.0E+00
-53.00E-09,-160.80402E-06
-52.00E-09,-160.80402E-06
-51.00E-09,-160.80402E-06
-50.00E-09,+0.0E+00
-49.00E-09,+160.80402E-06
-48.00E-09,+321.60804E-06
-47.00E-09,+160.80402E-06
-46.00E-09,+0.0E+00
-45.00E-09,+0.0E+00
-44.00E-09,+160.80402E-06
-43.00E-09,-20.10050E-06
-42.00E-09,-160.80402E-06
-41.00E-09,+0.0E+00
-40.00E-09,+140.70352E-06
-39.00E-09,-160.80402E-06
-38.00E-09,-321.60804E-06
-37.00E-09,-321.60804E-06
-36.00E-09,-160.80402E-06
-35.00E-09,+0.0E+00
-34.00E-09,+0.0E+00
-33.00E-09,-160.80402E-06
-32.00E-09,-160.80402E-06
-31.00E-09,+0.0E+00
-30.00E-09,-160.80402E-06
-29.00E-09,+160.80402E-06
-28.00E-09,+160.80402E-06
-27.00E-09,+140.70352E-06
-26.00E-09,+0.0E+00
-25.00E-09,+20.10050E-06
-24.00E-09,+160.80402E-06
-23.00E-09,+160.80402E-06
-22.00E-09,+0.0E+00
-21.00E-09,+0.0E+00
-20.00E-09,+0.0E+00
-19.00E-09,+0.0E+00
-18.00E-09,-180.90452E-06
-17.00E-09,-482.41206E-06
-16.00E-09,-321.60804E-06
-15.00E-09,-482.41206E-06
-14.00E-09,-804.02009E-06
-13.00E-09,-643.21607E-06
-12.00E-09,-804.02009E-06
-11.00E-09,-783.91959E-06
-10.00E-09,-462.31155E-06
-9.00E-09,-160.80402E-06
-8.00E-09,+180.90452E-06
-7.00E-09,+804.02009E-06
-6.00E-09,+1.14572863E-03
-5.00E-09,+1.92964822E-03
-4.00E-09,+2.75376881E-03
-3.00E-09,+3.39698489E-03
-2.00E-09,+4.04020096E-03
-1.00E-09,+4.68341704E-03
+0.0E+00,+5.48743713E-03
+1.00E-09,+6.29145722E-03
+2.00E-09,+6.77386927E-03
+3.00E-09,+7.07537681E-03
+4.00E-09,+7.23618083E-03
+5.00E-09,+7.23618083E-03
+6.00E-09,+7.21608032E-03
+7.00E-09,+6.89447229E-03
+8.00E-09,+6.75376877E-03
+9.00E-09,+6.57286425E-03
+10.00E-09,+6.11055270E-03
+11.00E-09,+5.76884416E-03
+12.00E-09,+5.46733662E-03
+13.00E-09,+5.12562809E-03
+14.00E-09,+4.48241201E-03
+15.00E-09,+3.85929644E-03
+16.00E-09,+3.69849242E-03
+17.00E-09,+3.53768840E-03
+18.00E-09,+3.35678388E-03
+19.00E-09,+3.05527635E-03
+20.00E-09,+2.73366831E-03
+21.00E-09,+2.55276379E-03
+22.00E-09,+2.57286429E-03
+23.00E-09,+2.55276379E-03
+24.00E-09,+2.41206028E-03
+25.00E-09,+2.09045224E-03
+26.00E-09,+1.76884420E-03
+27.00E-09,+1.60804018E-03
+28.00E-09,+1.42713566E-03
+29.00E-09,+944.72361E-06
+30.00E-09,+140.70352E-06
+31.00E-09,-341.70854E-06
+32.00E-09,-824.12059E-06
+33.00E-09,-1.44723617E-03
+34.00E-09,-1.76884420E-03
+35.00E-09,-2.09045224E-03
+36.00E-09,-2.25125626E-03
+37.00E-09,-2.73366831E-03
+38.00E-09,-2.89447233E-03
+39.00E-09,-2.91457283E-03
+40.00E-09,-3.23618087E-03
+41.00E-09,-3.37688439E-03
+42.00E-09,-3.21608037E-03
+43.00E-09,-3.21608037E-03
+44.00E-09,-3.21608037E-03
+45.00E-09,-3.37688439E-03
+46.00E-09,-3.69849242E-03
+47.00E-09,-3.69849242E-03
+48.00E-09,-3.51758790E-03
+49.00E-09,-3.37688439E-03
+50.00E-09,-3.53768840E-03
+51.00E-09,-3.69849242E-03
+52.00E-09,-3.69849242E-03
+53.00E-09,-3.85929644E-03
+54.00E-09,-3.69849242E-03
+55.00E-09,-3.69849242E-03
+56.00E-09,-3.87939694E-03
+57.00E-09,-4.18090448E-03
+58.00E-09,-4.18090448E-03
+59.00E-09,-4.04020096E-03
+60.00E-09,-4.34170850E-03
+61.00E-09,-4.18090448E-03
+62.00E-09,-4.18090448E-03
+63.00E-09,-4.18090448E-03
+64.00E-09,-4.34170850E-03
+65.00E-09,-4.18090448E-03
+66.00E-09,-4.18090448E-03
+67.00E-09,-4.02010046E-03
+68.00E-09,-4.02010046E-03
+69.00E-09,-4.02010046E-03
+70.00E-09,-3.85929644E-03
+71.00E-09,-3.85929644E-03
+72.00E-09,-3.69849242E-03
+73.00E-09,-3.51758790E-03
+74.00E-09,-3.19597987E-03
+75.00E-09,-2.89447233E-03
+76.00E-09,-3.21608037E-03
+77.00E-09,-3.05527635E-03
+78.00E-09,-2.73366831E-03
+79.00E-09,-2.89447233E-03
+80.00E-09,-2.89447233E-03
+81.00E-09,-2.57286429E-03
+82.00E-09,-2.41206028E-03
+83.00E-09,-2.09045224E-03
+84.00E-09,-1.92964822E-03
+85.00E-09,-1.90954772E-03
+86.00E-09,-1.76884420E-03
+87.00E-09,-1.60804018E-03
+88.00E-09,-1.44723617E-03
+89.00E-09,-1.60804018E-03
+90.00E-09,-1.42713566E-03
+91.00E-09,-1.10552763E-03
+92.00E-09,-964.82411E-06
+93.00E-09,-964.82411E-06
+94.00E-09,-804.02009E-06
+95.00E-09,-643.21607E-06
+96.00E-09,-643.21607E-06
+97.00E-09,-482.41206E-06
+98.00E-09,-321.60804E-06
+99.00E-09,-301.50753E-06
+100.00E-09,-160.80402E-06
+101.00E-09,-321.60804E-06
+102.00E-09,+0.0E+00
+103.00E-09,+180.90452E-06
+104.00E-09,+321.60804E-06
+105.00E-09,+482.41206E-06
+106.00E-09,+643.21607E-06
+107.00E-09,+643.21607E-06
+108.00E-09,+663.31658E-06
+109.00E-09,+804.02009E-06
+110.00E-09,+804.02009E-06
+111.00E-09,+1.12562813E-03
+112.00E-09,+1.30653265E-03
+113.00E-09,+1.60804018E-03
+114.00E-09,+1.60804018E-03
+115.00E-09,+1.60804018E-03
+116.00E-09,+1.60804018E-03
+117.00E-09,+1.76884420E-03
+118.00E-09,+1.92964822E-03
+119.00E-09,+2.09045224E-03
+120.00E-09,+2.25125626E-03
+121.00E-09,+2.25125626E-03
+122.00E-09,+2.09045224E-03
+123.00E-09,+2.09045224E-03
+124.00E-09,+2.25125626E-03
+125.00E-09,+2.41206028E-03
+126.00E-09,+2.57286429E-03
+127.00E-09,+2.73366831E-03
+128.00E-09,+2.73366831E-03
+129.00E-09,+2.89447233E-03
+130.00E-09,+3.05527635E-03
+131.00E-09,+3.37688439E-03
+132.00E-09,+3.21608037E-03
+133.00E-09,+2.89447233E-03
+134.00E-09,+2.89447233E-03
+135.00E-09,+2.89447233E-03
+136.00E-09,+2.73366831E-03
+137.00E-09,+3.05527635E-03
+138.00E-09,+3.03517585E-03
+139.00E-09,+2.73366831E-03
+140.00E-09,+2.89447233E-03
+141.00E-09,+2.57286429E-03
+142.00E-09,+2.73366831E-03
+143.00E-09,+2.73366831E-03
+144.00E-09,+2.73366831E-03
+145.00E-09,+2.57286429E-03
+146.00E-09,+2.89447233E-03
+147.00E-09,+2.73366831E-03
+148.00E-09,+2.57286429E-03
+149.00E-09,+2.73366831E-03
+150.00E-09,+2.73366831E-03
+151.00E-09,+2.73366831E-03
+152.00E-09,+2.57286429E-03
+153.00E-09,+2.41206028E-03
+154.00E-09,+2.43216078E-03
+155.00E-09,+2.57286429E-03
+156.00E-09,+2.41206028E-03
+157.00E-09,+2.41206028E-03
+158.00E-09,+2.23115575E-03
+159.00E-09,+1.92964822E-03
+160.00E-09,+1.60804018E-03
+161.00E-09,+1.60804018E-03
+162.00E-09,+1.12562813E-03
+163.00E-09,+1.12562813E-03
+164.00E-09,+1.28643215E-03
+165.00E-09,+1.10552763E-03
+166.00E-09,+804.02009E-06
+167.00E-09,+462.31155E-06
+168.00E-09,+321.60804E-06
+169.00E-09,+160.80402E-06
+170.00E-09,+180.90452E-06
+171.00E-09,+321.60804E-06
+172.00E-09,+160.80402E-06
+173.00E-09,+0.0E+00
+174.00E-09,+0.0E+00
+175.00E-09,-180.90452E-06
+176.00E-09,-321.60804E-06
+177.00E-09,-160.80402E-06
+178.00E-09,-321.60804E-06
+179.00E-09,-502.51256E-06
+180.00E-09,-643.21607E-06
+181.00E-09,-663.31658E-06
+182.00E-09,-964.82411E-06
+183.00E-09,-984.92461E-06
+184.00E-09,-1.28643215E-03
+185.00E-09,-1.28643215E-03
+186.00E-09,-1.14572863E-03
+187.00E-09,-1.44723617E-03
+188.00E-09,-1.60804018E-03
+189.00E-09,-1.60804018E-03
+190.00E-09,-1.60804018E-03
+191.00E-09,-1.76884420E-03
+192.00E-09,-1.76884420E-03
+193.00E-09,-1.76884420E-03
+194.00E-09,-1.92964822E-03
+195.00E-09,-1.76884420E-03
+196.00E-09,-1.62814069E-03
+197.00E-09,-1.76884420E-03
+198.00E-09,-1.62814069E-03
+199.00E-09,-1.78894470E-03
+200.00E-09,-2.25125626E-03
+201.00E-09,-2.09045224E-03
+202.00E-09,-1.90954772E-03
+203.00E-09,-1.76884420E-03
+204.00E-09,-1.78894470E-03
+205.00E-09,-2.09045224E-03
+206.00E-09,-2.09045224E-03
+207.00E-09,-2.09045224E-03
+208.00E-09,-2.09045224E-03
+209.00E-09,-2.25125626E-03
+210.00E-09,-2.09045224E-03
+211.00E-09,-1.92964822E-03
+212.00E-09,-1.92964822E-03
+213.00E-09,-1.76884420E-03
+214.00E-09,-1.76884420E-03
+215.00E-09,-1.76884420E-03
+216.00E-09,-1.92964822E-03
+217.00E-09,-1.76884420E-03
+218.00E-09,-1.76884420E-03
+219.00E-09,-1.44723617E-03
+220.00E-09,-1.28643215E-03
+221.00E-09,-1.28643215E-03
+222.00E-09,-1.30653265E-03
+223.00E-09,-1.28643215E-03
+224.00E-09,-1.28643215E-03
+225.00E-09,-1.14572863E-03
+226.00E-09,-1.12562813E-03
+227.00E-09,-964.82411E-06
+228.00E-09,-984.92461E-06
+229.00E-09,-1.28643215E-03
+230.00E-09,-1.28643215E-03
+231.00E-09,-1.28643215E-03
+232.00E-09,-1.12562813E-03
+233.00E-09,-1.10552763E-03
+234.00E-09,-964.82411E-06
+235.00E-09,-964.82411E-06
+236.00E-09,-1.12562813E-03
+237.00E-09,-964.82411E-06
+238.00E-09,-804.02009E-06
+239.00E-09,-804.02009E-06
+240.00E-09,-643.21607E-06
+241.00E-09,-643.21607E-06
+242.00E-09,-643.21607E-06
+243.00E-09,-643.21607E-06
+244.00E-09,-623.11557E-06
+245.00E-09,-643.21607E-06
+246.00E-09,-482.41206E-06
+247.00E-09,-482.41206E-06
+248.00E-09,-482.41206E-06
+249.00E-09,-482.41206E-06
+250.00E-09,-482.41206E-06
+251.00E-09,-321.60804E-06
+252.00E-09,-482.41206E-06
+253.00E-09,-482.41206E-06
+254.00E-09,-321.60804E-06
+255.00E-09,-321.60804E-06
+256.00E-09,-160.80402E-06
+257.00E-09,-160.80402E-06
+258.00E-09,-160.80402E-06
+259.00E-09,-160.80402E-06
+260.00E-09,-140.70352E-06
+261.00E-09,+180.90452E-06
+262.00E-09,+482.41206E-06
+263.00E-09,+321.60804E-06
+264.00E-09,+321.60804E-06
+265.00E-09,+643.21607E-06
+266.00E-09,+783.91959E-06
+267.00E-09,+482.41206E-06
+268.00E-09,+502.51256E-06
+269.00E-09,+804.02009E-06
+270.00E-09,+1.12562813E-03
+271.00E-09,+1.12562813E-03
+272.00E-09,+1.28643215E-03
+273.00E-09,+1.30653265E-03
+274.00E-09,+1.28643215E-03
+275.00E-09,+1.44723617E-03
+276.00E-09,+1.60804018E-03
+277.00E-09,+1.92964822E-03
+278.00E-09,+1.92964822E-03
+279.00E-09,+1.76884420E-03
+280.00E-09,+1.76884420E-03
+281.00E-09,+1.74874370E-03
+282.00E-09,+1.60804018E-03
+283.00E-09,+1.76884420E-03
+284.00E-09,+1.92964822E-03
+285.00E-09,+2.09045224E-03
+286.00E-09,+2.09045224E-03
+287.00E-09,+1.92964822E-03
+288.00E-09,+1.76884420E-03
+289.00E-09,+1.76884420E-03
+290.00E-09,+1.78894470E-03
+291.00E-09,+1.92964822E-03
+292.00E-09,+1.92964822E-03
+293.00E-09,+1.76884420E-03
+294.00E-09,+1.62814069E-03
+295.00E-09,+1.92964822E-03
+296.00E-09,+1.92964822E-03
+297.00E-09,+1.76884420E-03
+298.00E-09,+1.78894470E-03
+299.00E-09,+1.92964822E-03
+300.00E-09,+1.76884420E-03
+301.00E-09,+1.76884420E-03
+302.00E-09,+1.76884420E-03
+303.00E-09,+1.60804018E-03
+304.00E-09,+1.60804018E-03
+305.00E-09,+1.44723617E-03
+306.00E-09,+1.44723617E-03
+307.00E-09,+1.44723617E-03
+308.00E-09,+1.28643215E-03
+309.00E-09,+1.12562813E-03
+310.00E-09,+964.82411E-06
+311.00E-09,+984.92461E-06
+312.00E-09,+1.28643215E-03
+313.00E-09,+1.26633164E-03
+314.00E-09,+944.72361E-06
+315.00E-09,+643.21607E-06
+316.00E-09,+804.02009E-06
+317.00E-09,+783.91959E-06
+318.00E-09,+643.21607E-06
+319.00E-09,+804.02009E-06
+320.00E-09,+623.11557E-06
+321.00E-09,+321.60804E-06
+322.00E-09,+321.60804E-06
+323.00E-09,+482.41206E-06
+324.00E-09,+462.31155E-06
+325.00E-09,+140.70352E-06
+326.00E-09,-20.10050E-06
+327.00E-09,-140.70352E-06
+328.00E-09,+160.80402E-06
+329.00E-09,+180.90452E-06
+330.00E-09,+341.70854E-06
+331.00E-09,+321.60804E-06
+332.00E-09,+160.80402E-06
+333.00E-09,+160.80402E-06
+334.00E-09,+160.80402E-06
+335.00E-09,+160.80402E-06
+336.00E-09,+0.0E+00
+337.00E-09,+160.80402E-06
+338.00E-09,+301.50753E-06
+339.00E-09,+0.0E+00
+340.00E-09,-160.80402E-06
+341.00E-09,-160.80402E-06
+342.00E-09,+160.80402E-06
+343.00E-09,+160.80402E-06
+344.00E-09,+0.0E+00
+345.00E-09,-20.10050E-06
+346.00E-09,-140.70352E-06
+347.00E-09,+0.0E+00
+348.00E-09,+0.0E+00
+349.00E-09,+0.0E+00
+350.00E-09,+0.0E+00
+351.00E-09,+0.0E+00
+352.00E-09,+0.0E+00
+353.00E-09,-160.80402E-06
+354.00E-09,-160.80402E-06
+355.00E-09,-321.60804E-06
+356.00E-09,-160.80402E-06
+357.00E-09,-180.90452E-06
+358.00E-09,-482.41206E-06
+359.00E-09,-482.41206E-06
+360.00E-09,-321.60804E-06
+361.00E-09,-160.80402E-06
+362.00E-09,-321.60804E-06
+363.00E-09,-643.21607E-06
+364.00E-09,-783.91959E-06
+365.00E-09,-643.21607E-06
+366.00E-09,-482.41206E-06
+367.00E-09,-482.41206E-06
+368.00E-09,-482.41206E-06
+369.00E-09,-482.41206E-06
+370.00E-09,-643.21607E-06
+371.00E-09,-663.31658E-06
+372.00E-09,-643.21607E-06
+373.00E-09,-482.41206E-06
+374.00E-09,-643.21607E-06
+375.00E-09,-482.41206E-06
+376.00E-09,-643.21607E-06
+377.00E-09,-482.41206E-06
+378.00E-09,-482.41206E-06
+379.00E-09,-502.51256E-06
+380.00E-09,-643.21607E-06
+381.00E-09,-482.41206E-06
+382.00E-09,-321.60804E-06
+383.00E-09,-482.41206E-06
+384.00E-09,-643.21607E-06
+385.00E-09,-643.21607E-06
+386.00E-09,-482.41206E-06
+387.00E-09,-643.21607E-06
+388.00E-09,-482.41206E-06
+389.00E-09,-482.41206E-06
+390.00E-09,-804.02009E-06
+391.00E-09,-964.82411E-06
+392.00E-09,-643.21607E-06
+393.00E-09,-502.51256E-06
+394.00E-09,-643.21607E-06
+395.00E-09,-623.11557E-06
+396.00E-09,-321.60804E-06
+397.00E-09,-341.70854E-06
+398.00E-09,-482.41206E-06
+399.00E-09,-482.41206E-06
+400.00E-09,-482.41206E-06
+401.00E-09,-462.31155E-06
+402.00E-09,-160.80402E-06
+403.00E-09,-160.80402E-06
+404.00E-09,-160.80402E-06
+405.00E-09,-160.80402E-06
+406.00E-09,-160.80402E-06
+407.00E-09,-160.80402E-06
+408.00E-09,-160.80402E-06
+409.00E-09,-160.80402E-06
+410.00E-09,+160.80402E-06
+411.00E-09,+321.60804E-06
+412.00E-09,+321.60804E-06
+413.00E-09,+462.31155E-06
+414.00E-09,+462.31155E-06
+415.00E-09,+321.60804E-06
+416.00E-09,+482.41206E-06
+417.00E-09,+502.51256E-06
+418.00E-09,+663.31658E-06
+419.00E-09,+804.02009E-06
+420.00E-09,+804.02009E-06
+421.00E-09,+804.02009E-06
+422.00E-09,+804.02009E-06
+423.00E-09,+643.21607E-06
+424.00E-09,+663.31658E-06
+425.00E-09,+804.02009E-06
+426.00E-09,+643.21607E-06
+427.00E-09,+623.11557E-06
+428.00E-09,+502.51256E-06
+429.00E-09,+804.02009E-06
+430.00E-09,+804.02009E-06
+431.00E-09,+964.82411E-06
+432.00E-09,+804.02009E-06
+433.00E-09,+804.02009E-06
+434.00E-09,+1.12562813E-03
+435.00E-09,+964.82411E-06
+436.00E-09,+804.02009E-06
+437.00E-09,+964.82411E-06
+438.00E-09,+804.02009E-06
+439.00E-09,+804.02009E-06
+440.00E-09,+804.02009E-06
+441.00E-09,+643.21607E-06
+442.00E-09,+643.21607E-06
+443.00E-09,+804.02009E-06
+444.00E-09,+804.02009E-06
+445.00E-09,+804.02009E-06
+446.00E-09,+964.82411E-06
+447.00E-09,+804.02009E-06
+448.00E-09,+804.02009E-06
+449.00E-09,+804.02009E-06
+450.00E-09,+824.12059E-06
+451.00E-09,+984.92461E-06
+452.00E-09,+1.12562813E-03
+453.00E-09,+964.82411E-06
+454.00E-09,+964.82411E-06
+455.00E-09,+964.82411E-06
+456.00E-09,+964.82411E-06
+457.00E-09,+964.82411E-06
+458.00E-09,+1.12562813E-03
+459.00E-09,+1.28643215E-03
+460.00E-09,+1.28643215E-03
+461.00E-09,+1.12562813E-03
+462.00E-09,+964.82411E-06
+463.00E-09,+1.12562813E-03
+464.00E-09,+1.12562813E-03
+465.00E-09,+1.12562813E-03
+466.00E-09,+1.12562813E-03
+467.00E-09,+1.12562813E-03
+468.00E-09,+1.12562813E-03
+469.00E-09,+964.82411E-06
+470.00E-09,+964.82411E-06
+471.00E-09,+964.82411E-06
+472.00E-09,+643.21607E-06
+473.00E-09,+804.02009E-06
+474.00E-09,+944.72361E-06
+475.00E-09,+804.02009E-06
+476.00E-09,+804.02009E-06
+477.00E-09,+643.21607E-06
+478.00E-09,+804.02009E-06
+479.00E-09,+804.02009E-06
+480.00E-09,+804.02009E-06
+481.00E-09,+482.41206E-06
+482.00E-09,+482.41206E-06
+483.00E-09,+643.21607E-06
+484.00E-09,+643.21607E-06
+485.00E-09,+643.21607E-06
+486.00E-09,+643.21607E-06
+487.00E-09,+643.21607E-06
+488.00E-09,+482.41206E-06
+489.00E-09,+643.21607E-06
+490.00E-09,+482.41206E-06
+491.00E-09,+482.41206E-06
+492.00E-09,+643.21607E-06
+493.00E-09,+482.41206E-06
+494.00E-09,+502.51256E-06
+495.00E-09,+643.21607E-06
+496.00E-09,+321.60804E-06
+497.00E-09,+180.90452E-06
+498.00E-09,+321.60804E-06
+499.00E-09,+0.0E+00
+500.00E-09,-301.50753E-06
+501.00E-09,-160.80402E-06
+502.00E-09,-321.60804E-06
+503.00E-09,-482.41206E-06
+504.00E-09,-321.60804E-06
+505.00E-09,-160.80402E-06
+506.00E-09,-321.60804E-06
+507.00E-09,-321.60804E-06
+508.00E-09,-321.60804E-06
+509.00E-09,-160.80402E-06
+510.00E-09,-341.70854E-06
+511.00E-09,-643.21607E-06
+512.00E-09,-804.02009E-06
+513.00E-09,-623.11557E-06
+514.00E-09,-643.21607E-06
+515.00E-09,-804.02009E-06
+516.00E-09,-783.91959E-06
+517.00E-09,-643.21607E-06
+518.00E-09,-482.41206E-06
+519.00E-09,-502.51256E-06
+520.00E-09,-643.21607E-06
+521.00E-09,-482.41206E-06
+522.00E-09,-643.21607E-06
+523.00E-09,-643.21607E-06
+524.00E-09,-804.02009E-06
+525.00E-09,-623.11557E-06
+526.00E-09,-643.21607E-06
+527.00E-09,-824.12059E-06
+528.00E-09,-1.12562813E-03
+529.00E-09,-643.21607E-06
+530.00E-09,-643.21607E-06
+531.00E-09,-663.31658E-06
+532.00E-09,-964.82411E-06
+533.00E-09,-964.82411E-06
+534.00E-09,-804.02009E-06
+535.00E-09,-824.12059E-06
+536.00E-09,-964.82411E-06
+537.00E-09,-984.92461E-06
+538.00E-09,-1.30653265E-03
+539.00E-09,-1.10552763E-03
+540.00E-09,-643.21607E-06
+541.00E-09,-804.02009E-06
+542.00E-09,-964.82411E-06
+543.00E-09,-1.12562813E-03
+544.00E-09,-964.82411E-06
+545.00E-09,-804.02009E-06
+546.00E-09,-804.02009E-06
+547.00E-09,-643.21607E-06
+548.00E-09,-643.21607E-06
+549.00E-09,-643.21607E-06
+550.00E-09,-643.21607E-06
+551.00E-09,-643.21607E-06
+552.00E-09,-321.60804E-06
+553.00E-09,-482.41206E-06
+554.00E-09,-482.41206E-06
+555.00E-09,-482.41206E-06
+556.00E-09,-482.41206E-06
+557.00E-09,-643.21607E-06
+558.00E-09,-482.41206E-06
+559.00E-09,-321.60804E-06
+560.00E-09,-321.60804E-06
+561.00E-09,-321.60804E-06
+562.00E-09,-160.80402E-06
+563.00E-09,-160.80402E-06
+564.00E-09,-341.70854E-06
+565.00E-09,-482.41206E-06
+566.00E-09,-482.41206E-06
+567.00E-09,-482.41206E-06
+568.00E-09,-482.41206E-06
+569.00E-09,-482.41206E-06
+570.00E-09,-321.60804E-06
+571.00E-09,-160.80402E-06
+572.00E-09,-160.80402E-06
+573.00E-09,+0.0E+00
+574.00E-09,+160.80402E-06
+575.00E-09,+0.0E+00
+576.00E-09,-160.80402E-06
+577.00E-09,-321.60804E-06
+578.00E-09,-321.60804E-06
+579.00E-09,-140.70352E-06
+580.00E-09,+160.80402E-06
+581.00E-09,+0.0E+00
+582.00E-09,+160.80402E-06
+583.00E-09,+0.0E+00
+584.00E-09,+160.80402E-06
+585.00E-09,+180.90452E-06
+586.00E-09,+321.60804E-06
+587.00E-09,+301.50753E-06
+588.00E-09,+321.60804E-06
+589.00E-09,+160.80402E-06
+590.00E-09,+20.10050E-06
+591.00E-09,+160.80402E-06
+592.00E-09,+321.60804E-06
+593.00E-09,+643.21607E-06
+594.00E-09,+482.41206E-06
+595.00E-09,+160.80402E-06
+596.00E-09,+160.80402E-06
+597.00E-09,+180.90452E-06
+598.00E-09,+482.41206E-06
+599.00E-09,+321.60804E-06
+600.00E-09,+321.60804E-06
+601.00E-09,+321.60804E-06
+602.00E-09,+482.41206E-06
+603.00E-09,+643.21607E-06
+604.00E-09,+804.02009E-06
+605.00E-09,+804.02009E-06
+606.00E-09,+964.82411E-06
+607.00E-09,+1.12562813E-03
+608.00E-09,+783.91959E-06
+609.00E-09,+482.41206E-06
+610.00E-09,+643.21607E-06
+611.00E-09,+643.21607E-06
+612.00E-09,+804.02009E-06
+613.00E-09,+804.02009E-06
+614.00E-09,+804.02009E-06
+615.00E-09,+804.02009E-06
+616.00E-09,+964.82411E-06
+617.00E-09,+964.82411E-06
+618.00E-09,+964.82411E-06
+619.00E-09,+964.82411E-06
+620.00E-09,+944.72361E-06
+621.00E-09,+804.02009E-06
+622.00E-09,+643.21607E-06
+623.00E-09,+824.12059E-06
+624.00E-09,+964.82411E-06
+625.00E-09,+984.92461E-06
+626.00E-09,+964.82411E-06
+627.00E-09,+804.02009E-06
+628.00E-09,+623.11557E-06
+629.00E-09,+341.70854E-06
+630.00E-09,+643.21607E-06
+631.00E-09,+964.82411E-06
+632.00E-09,+804.02009E-06
+633.00E-09,+643.21607E-06
+634.00E-09,+804.02009E-06
+635.00E-09,+623.11557E-06
+636.00E-09,+643.21607E-06
+637.00E-09,+643.21607E-06
+638.00E-09,+804.02009E-06
+639.00E-09,+643.21607E-06
+640.00E-09,+482.41206E-06
+641.00E-09,+482.41206E-06
+642.00E-09,+482.41206E-06
+643.00E-09,+482.41206E-06
+644.00E-09,+321.60804E-06
+645.00E-09,+321.60804E-06
+646.00E-09,+160.80402E-06
+647.00E-09,+160.80402E-06
+648.00E-09,+160.80402E-06
+649.00E-09,+321.60804E-06
+650.00E-09,+160.80402E-06
+651.00E-09,+180.90452E-06
+652.00E-09,+321.60804E-06
+653.00E-09,+0.0E+00
+654.00E-09,+160.80402E-06
+655.00E-09,+160.80402E-06
+656.00E-09,+0.0E+00
+657.00E-09,+0.0E+00
+658.00E-09,-160.80402E-06
+659.00E-09,-321.60804E-06
+660.00E-09,-321.60804E-06
+661.00E-09,-321.60804E-06
+662.00E-09,+0.0E+00
+663.00E-09,+160.80402E-06
+664.00E-09,+0.0E+00
+665.00E-09,+0.0E+00
+666.00E-09,+0.0E+00
+667.00E-09,+0.0E+00
+668.00E-09,+0.0E+00
+669.00E-09,+0.0E+00
+670.00E-09,+0.0E+00
+671.00E-09,+0.0E+00
+672.00E-09,-160.80402E-06
+673.00E-09,-160.80402E-06
+674.00E-09,-180.90452E-06
+675.00E-09,-301.50753E-06
+676.00E-09,-160.80402E-06
+677.00E-09,-321.60804E-06
+678.00E-09,-482.41206E-06
+679.00E-09,-482.41206E-06
+680.00E-09,-321.60804E-06
+681.00E-09,-321.60804E-06
+682.00E-09,-643.21607E-06
+683.00E-09,-462.31155E-06
+684.00E-09,-321.60804E-06
+685.00E-09,-321.60804E-06
+686.00E-09,-321.60804E-06
+687.00E-09,-321.60804E-06
+688.00E-09,-321.60804E-06
+689.00E-09,-321.60804E-06
+690.00E-09,-643.21607E-06
+691.00E-09,-482.41206E-06
+692.00E-09,-482.41206E-06
+693.00E-09,-321.60804E-06
+694.00E-09,-482.41206E-06
+695.00E-09,-623.11557E-06
+696.00E-09,-482.41206E-06
+697.00E-09,-482.41206E-06
+698.00E-09,-804.02009E-06
+699.00E-09,-482.41206E-06
+700.00E-09,-482.41206E-06
+701.00E-09,-321.60804E-06
+702.00E-09,-321.60804E-06
+703.00E-09,-321.60804E-06
+704.00E-09,-160.80402E-06
+705.00E-09,-321.60804E-06
+706.00E-09,-321.60804E-06
+707.00E-09,-160.80402E-06
+708.00E-09,+20.10050E-06
+709.00E-09,+140.70352E-06
+710.00E-09,-321.60804E-06
+711.00E-09,-321.60804E-06
+712.00E-09,-160.80402E-06
+713.00E-09,+160.80402E-06
+714.00E-09,+0.0E+00
+715.00E-09,+160.80402E-06
+716.00E-09,+321.60804E-06
+717.00E-09,+321.60804E-06
+718.00E-09,+321.60804E-06
+719.00E-09,+321.60804E-06
+720.00E-09,+160.80402E-06
+721.00E-09,+160.80402E-06
+722.00E-09,+160.80402E-06
+723.00E-09,+160.80402E-06
+724.00E-09,+160.80402E-06
+725.00E-09,+321.60804E-06
+726.00E-09,+301.50753E-06
+727.00E-09,+160.80402E-06
+728.00E-09,+0.0E+00
+729.00E-09,+20.10050E-06
+730.00E-09,+341.70854E-06
+731.00E-09,+482.41206E-06
+732.00E-09,+482.41206E-06
+733.00E-09,+482.41206E-06
+734.00E-09,+482.41206E-06
+735.00E-09,+321.60804E-06
+736.00E-09,+321.60804E-06
+737.00E-09,+321.60804E-06
+738.00E-09,+321.60804E-06
+739.00E-09,+482.41206E-06
+740.00E-09,+643.21607E-06
+741.00E-09,+623.11557E-06
+742.00E-09,+482.41206E-06
+743.00E-09,+502.51256E-06
+744.00E-09,+804.02009E-06
+745.00E-09,+643.21607E-06
+746.00E-09,+482.41206E-06
+747.00E-09,+663.31658E-06
+748.00E-09,+804.02009E-06
+749.00E-09,+643.21607E-06
+750.00E-09,+623.11557E-06
+751.00E-09,+301.50753E-06
+752.00E-09,+321.60804E-06
+753.00E-09,+502.51256E-06
+754.00E-09,+482.41206E-06
+755.00E-09,+482.41206E-06
+756.00E-09,+482.41206E-06
+757.00E-09,+321.60804E-06
+758.00E-09,+160.80402E-06
+759.00E-09,+321.60804E-06
+760.00E-09,+482.41206E-06
+761.00E-09,+482.41206E-06
+762.00E-09,+643.21607E-06
+763.00E-09,+623.11557E-06
+764.00E-09,+321.60804E-06
+765.00E-09,+482.41206E-06
+766.00E-09,+804.02009E-06
+767.00E-09,+643.21607E-06
+768.00E-09,+643.21607E-06
+769.00E-09,+643.21607E-06
+770.00E-09,+482.41206E-06
+771.00E-09,+321.60804E-06
+772.00E-09,+321.60804E-06
+773.00E-09,+321.60804E-06
+774.00E-09,+482.41206E-06
+775.00E-09,+482.41206E-06
+776.00E-09,+643.21607E-06
+777.00E-09,+643.21607E-06
+778.00E-09,+482.41206E-06
+779.00E-09,+502.51256E-06
+780.00E-09,+643.21607E-06
+781.00E-09,+482.41206E-06
+782.00E-09,+643.21607E-06
+783.00E-09,+804.02009E-06
+784.00E-09,+462.31155E-06
+785.00E-09,+160.80402E-06
+786.00E-09,+502.51256E-06
+787.00E-09,+643.21607E-06
+788.00E-09,+482.41206E-06
+789.00E-09,+482.41206E-06
+790.00E-09,+482.41206E-06
+791.00E-09,+321.60804E-06
+792.00E-09,+301.50753E-06
+793.00E-09,+160.80402E-06
+794.00E-09,+341.70854E-06
+795.00E-09,+482.41206E-06
+796.00E-09,+321.60804E-06
+797.00E-09,+321.60804E-06
+798.00E-09,+321.60804E-06
+799.00E-09,+160.80402E-06
+800.00E-09,+321.60804E-06
+801.00E-09,+482.41206E-06
+802.00E-09,+321.60804E-06
+803.00E-09,+160.80402E-06
+804.00E-09,+321.60804E-06
+805.00E-09,+140.70352E-06
+806.00E-09,+160.80402E-06
+807.00E-09,+0.0E+00
+808.00E-09,+0.0E+00
+809.00E-09,+160.80402E-06
+810.00E-09,+0.0E+00
+811.00E-09,+160.80402E-06
+812.00E-09,+140.70352E-06
+813.00E-09,-160.80402E-06
+814.00E-09,-321.60804E-06
+815.00E-09,-321.60804E-06
+816.00E-09,-321.60804E-06
+817.00E-09,-482.41206E-06
+818.00E-09,-321.60804E-06
+819.00E-09,-321.60804E-06
+820.00E-09,-160.80402E-06
+821.00E-09,-160.80402E-06
+822.00E-09,-160.80402E-06
+823.00E-09,-160.80402E-06
+824.00E-09,-160.80402E-06
+825.00E-09,-341.70854E-06
+826.00E-09,-643.21607E-06
+827.00E-09,-643.21607E-06
+828.00E-09,-623.11557E-06
+829.00E-09,-341.70854E-06
+830.00E-09,-482.41206E-06
+831.00E-09,-301.50753E-06
+832.00E-09,-160.80402E-06
+833.00E-09,-321.60804E-06
+834.00E-09,-321.60804E-06
+835.00E-09,-160.80402E-06
+836.00E-09,-20.10050E-06
+837.00E-09,-160.80402E-06
+838.00E-09,-160.80402E-06
+839.00E-09,-321.60804E-06
+840.00E-09,-321.60804E-06
+841.00E-09,-321.60804E-06
+842.00E-09,-160.80402E-06
+843.00E-09,-160.80402E-06
+844.00E-09,-160.80402E-06
+845.00E-09,-482.41206E-06
+846.00E-09,-643.21607E-06
+847.00E-09,-482.41206E-06
+848.00E-09,-482.41206E-06
+849.00E-09,-482.41206E-06
+850.00E-09,-321.60804E-06
+851.00E-09,-160.80402E-06
+852.00E-09,-321.60804E-06
+853.00E-09,-321.60804E-06
+854.00E-09,-482.41206E-06
+855.00E-09,-321.60804E-06
+856.00E-09,-482.41206E-06
+857.00E-09,-482.41206E-06
+858.00E-09,-643.21607E-06
+859.00E-09,-482.41206E-06
+860.00E-09,-321.60804E-06
+861.00E-09,-321.60804E-06
+862.00E-09,-180.90452E-06
+863.00E-09,-321.60804E-06
+864.00E-09,-321.60804E-06
+865.00E-09,-321.60804E-06
+866.00E-09,-321.60804E-06
+867.00E-09,-321.60804E-06
+868.00E-09,-321.60804E-06
+869.00E-09,-160.80402E-06
+870.00E-09,+0.0E+00
+871.00E-09,-160.80402E-06
+872.00E-09,-321.60804E-06
+873.00E-09,-482.41206E-06
+874.00E-09,-301.50753E-06
+875.00E-09,-160.80402E-06
+876.00E-09,+0.0E+00
+877.00E-09,+160.80402E-06
+878.00E-09,-160.80402E-06
+879.00E-09,-160.80402E-06
+880.00E-09,+0.0E+00
+881.00E-09,+0.0E+00
+882.00E-09,-160.80402E-06
+883.00E-09,+0.0E+00
+884.00E-09,+0.0E+00
+885.00E-09,+160.80402E-06
+886.00E-09,+0.0E+00
+887.00E-09,+0.0E+00
+888.00E-09,+0.0E+00
+889.00E-09,-20.10050E-06
+890.00E-09,-160.80402E-06
+891.00E-09,-160.80402E-06
+892.00E-09,+0.0E+00
+893.00E-09,+0.0E+00
+894.00E-09,+160.80402E-06
+895.00E-09,+160.80402E-06
+896.00E-09,+160.80402E-06
+897.00E-09,+160.80402E-06
+898.00E-09,+140.70352E-06
+899.00E-09,+0.0E+00
+900.00E-09,+160.80402E-06
+901.00E-09,+301.50753E-06
+902.00E-09,+160.80402E-06
+903.00E-09,+140.70352E-06
+904.00E-09,+0.0E+00
+905.00E-09,-160.80402E-06
+906.00E-09,+20.10050E-06
+907.00E-09,+160.80402E-06
+908.00E-09,+0.0E+00
+909.00E-09,-140.70352E-06
+910.00E-09,+20.10050E-06
+911.00E-09,+321.60804E-06
+912.00E-09,+321.60804E-06
+913.00E-09,+180.90452E-06
+914.00E-09,+160.80402E-06
+915.00E-09,+160.80402E-06
+916.00E-09,+321.60804E-06
+917.00E-09,+160.80402E-06
+918.00E-09,+321.60804E-06
+919.00E-09,+643.21607E-06
+920.00E-09,+623.11557E-06
+921.00E-09,+482.41206E-06
+922.00E-09,+482.41206E-06
+923.00E-09,+462.31155E-06
+924.00E-09,+482.41206E-06
+925.00E-09,+804.02009E-06
+926.00E-09,+643.21607E-06
+927.00E-09,+462.31155E-06
+928.00E-09,+321.60804E-06
+929.00E-09,+341.70854E-06
+930.00E-09,+321.60804E-06
+931.00E-09,+321.60804E-06
+932.00E-09,+321.60804E-06
+933.00E-09,+160.80402E-06
+934.00E-09,+321.60804E-06
+935.00E-09,+321.60804E-06
+936.00E-09,+301.50753E-06
+937.00E-09,+160.80402E-06
+938.00E-09,+341.70854E-06
+939.00E-09,+341.70854E-06
+940.00E-09,+321.60804E-06
+941.00E-09,+160.80402E-06
+942.00E-09,+160.80402E-06
+943.00E-09,+341.70854E-06
+944.00E-09,+462.31155E-06
+945.00E-09,+0.0E+00
+946.00E-09,-140.70352E-06
+947.00E-09,+0.0E+00
+948.00E-09,+0.0E+00
+949.00E-09,-20.10050E-06
+950.00E-09,-160.80402E-06
+951.00E-09,+0.0E+00
+952.00E-09,+160.80402E-06
+953.00E-09,+140.70352E-06
+954.00E-09,-160.80402E-06
+955.00E-09,-160.80402E-06
+956.00E-09,+0.0E+00
+957.00E-09,+0.0E+00
+958.00E-09,+160.80402E-06
+959.00E-09,+321.60804E-06
+960.00E-09,+140.70352E-06
+961.00E-09,-160.80402E-06
+962.00E-09,-160.80402E-06
+963.00E-09,-160.80402E-06
+964.00E-09,+20.10050E-06
+965.00E-09,+160.80402E-06
+966.00E-09,+0.0E+00
+967.00E-09,+0.0E+00
+968.00E-09,+0.0E+00
+969.00E-09,-160.80402E-06
+970.00E-09,-140.70352E-06
+971.00E-09,-160.80402E-06
+972.00E-09,-160.80402E-06
+973.00E-09,-160.80402E-06
+974.00E-09,-160.80402E-06
+975.00E-09,-160.80402E-06
+976.00E-09,-321.60804E-06
+977.00E-09,-482.41206E-06
+978.00E-09,-643.21607E-06
+979.00E-09,-643.21607E-06
+980.00E-09,-643.21607E-06
+981.00E-09,-482.41206E-06
+982.00E-09,-321.60804E-06
+983.00E-09,-482.41206E-06
+984.00E-09,-482.41206E-06
+985.00E-09,-502.51256E-06
+986.00E-09,-643.21607E-06
+987.00E-09,-643.21607E-06
+988.00E-09,-482.41206E-06
+989.00E-09,-160.80402E-06
+990.00E-09,-160.80402E-06
+991.00E-09,-321.60804E-06
+992.00E-09,-482.41206E-06
+993.00E-09,-321.60804E-06
+994.00E-09,-160.80402E-06
+995.00E-09,-341.70854E-06
+996.00E-09,-321.60804E-06
+997.00E-09,-160.80402E-06
+998.00E-09,+0.0E+00
+999.00E-09,-160.80402E-06
+1.00000E-06,-160.80402E-06
+1.00100E-06,+20.10050E-06
+1.00200E-06,-20.10050E-06
+1.00300E-06,-160.80402E-06
+1.00400E-06,+0.0E+00
+1.00500E-06,-321.60804E-06
+1.00600E-06,-321.60804E-06
+1.00700E-06,-482.41206E-06
+1.00800E-06,-321.60804E-06
+1.00900E-06,-160.80402E-06
+1.01000E-06,-160.80402E-06
+1.01100E-06,-341.70854E-06
+1.01200E-06,-321.60804E-06
+1.01300E-06,-160.80402E-06
+1.01400E-06,-160.80402E-06
+1.01500E-06,-140.70352E-06
+1.01600E-06,+0.0E+00
+1.01700E-06,+0.0E+00
+1.01800E-06,-160.80402E-06
+1.01900E-06,-140.70352E-06
+1.02000E-06,+0.0E+00
+1.02100E-06,+0.0E+00
+1.02200E-06,+160.80402E-06
+1.02300E-06,+160.80402E-06
+1.02400E-06,+0.0E+00
+1.02500E-06,+0.0E+00
+1.02600E-06,-160.80402E-06
+1.02700E-06,-160.80402E-06
+1.02800E-06,-160.80402E-06
+1.02900E-06,+0.0E+00
+1.03000E-06,+160.80402E-06
+1.03100E-06,+140.70352E-06
+1.03200E-06,+160.80402E-06
+1.03300E-06,+321.60804E-06
+1.03400E-06,+321.60804E-06
+1.03500E-06,+482.41206E-06
+1.03600E-06,+321.60804E-06
+1.03700E-06,+160.80402E-06
+1.03800E-06,+20.10050E-06
+1.03900E-06,+160.80402E-06
+1.04000E-06,+321.60804E-06
+1.04100E-06,+160.80402E-06
+1.04200E-06,+180.90452E-06
+1.04300E-06,+321.60804E-06
+1.04400E-06,+160.80402E-06
+1.04500E-06,+140.70352E-06
+1.04600E-06,+0.0E+00
+1.04700E-06,+321.60804E-06
+1.04800E-06,+462.31155E-06
+1.04900E-06,+462.31155E-06
+1.05000E-06,+140.70352E-06
+1.05100E-06,+160.80402E-06
+1.05200E-06,+160.80402E-06
+1.05300E-06,+0.0E+00
+1.05400E-06,+160.80402E-06
+1.05500E-06,+160.80402E-06
+1.05600E-06,+160.80402E-06
+1.05700E-06,+0.0E+00
+1.05800E-06,+0.0E+00
+1.05900E-06,+160.80402E-06
+1.06000E-06,+160.80402E-06
+1.06100E-06,+0.0E+00
+1.06200E-06,-160.80402E-06
+1.06300E-06,+0.0E+00
+1.06400E-06,+160.80402E-06
+1.06500E-06,+160.80402E-06
+1.06600E-06,+0.0E+00
+1.06700E-06,+0.0E+00
+1.06800E-06,+0.0E+00
+1.06900E-06,+140.70352E-06
+1.07000E-06,+0.0E+00
+1.07100E-06,-160.80402E-06
+1.07200E-06,+0.0E+00
+1.07300E-06,+0.0E+00
+1.07400E-06,+0.0E+00
+1.07500E-06,+160.80402E-06
+1.07600E-06,+160.80402E-06
+1.07700E-06,+160.80402E-06
+1.07800E-06,+160.80402E-06
+1.07900E-06,+180.90452E-06
+1.08000E-06,+482.41206E-06
+1.08100E-06,+482.41206E-06
+1.08200E-06,+643.21607E-06
+1.08300E-06,+482.41206E-06
+1.08400E-06,+482.41206E-06
+1.08500E-06,+301.50753E-06
+1.08600E-06,+160.80402E-06
+1.08700E-06,+0.0E+00
+1.08800E-06,-20.10050E-06
+1.08900E-06,-140.70352E-06
+1.09000E-06,+0.0E+00
+1.09100E-06,-160.80402E-06
+1.09200E-06,-160.80402E-06
+1.09300E-06,+20.10050E-06
+1.09400E-06,+160.80402E-06
+1.09500E-06,+0.0E+00
+1.09600E-06,-20.10050E-06
+1.09700E-06,-321.60804E-06
+1.09800E-06,+20.10050E-06
+1.09900E-06,+160.80402E-06
+1.10000E-06,+160.80402E-06
+1.10100E-06,+160.80402E-06
+1.10200E-06,+0.0E+00
+1.10300E-06,+0.0E+00
+1.10400E-06,+20.10050E-06
+1.10500E-06,+160.80402E-06
+1.10600E-06,+321.60804E-06
+1.10700E-06,+160.80402E-06
+1.10800E-06,-160.80402E-06
+1.10900E-06,-160.80402E-06
+1.11000E-06,-20.10050E-06
+1.11100E-06,-140.70352E-06
+1.11200E-06,+160.80402E-06
+1.11300E-06,+0.0E+00
+1.11400E-06,-20.10050E-06
+1.11500E-06,-160.80402E-06
+1.11600E-06,+0.0E+00
+1.11700E-06,+0.0E+00
+1.11800E-06,+160.80402E-06
+1.11900E-06,+140.70352E-06
+1.12000E-06,+0.0E+00
+1.12100E-06,+0.0E+00
+1.12200E-06,-160.80402E-06
+1.12300E-06,+20.10050E-06
+1.12400E-06,+301.50753E-06
+1.12500E-06,+0.0E+00
+1.12600E-06,+0.0E+00
+1.12700E-06,+0.0E+00
+1.12800E-06,+180.90452E-06
+1.12900E-06,+160.80402E-06
+1.13000E-06,+140.70352E-06
+1.13100E-06,+0.0E+00
+1.13200E-06,-140.70352E-06
+1.13300E-06,+0.0E+00
+1.13400E-06,+0.0E+00
+1.13500E-06,+160.80402E-06
+1.13600E-06,+321.60804E-06
+1.13700E-06,+180.90452E-06
+1.13800E-06,+160.80402E-06
+1.13900E-06,+0.0E+00
+1.14000E-06,+0.0E+00
+1.14100E-06,+160.80402E-06
+1.14200E-06,+321.60804E-06
+1.14300E-06,+321.60804E-06
+1.14400E-06,+160.80402E-06
+1.14500E-06,+0.0E+00
+1.14600E-06,+160.80402E-06
+1.14700E-06,+321.60804E-06
+1.14800E-06,+301.50753E-06
+1.14900E-06,+160.80402E-06
+1.15000E-06,+160.80402E-06
+1.15100E-06,-160.80402E-06
+1.15200E-06,-140.70352E-06
+1.15300E-06,+0.0E+00
+1.15400E-06,+0.0E+00
+1.15500E-06,+0.0E+00
+1.15600E-06,+0.0E+00
+1.15700E-06,-20.10050E-06
+1.15800E-06,-160.80402E-06
+1.15900E-06,+0.0E+00
+1.16000E-06,+160.80402E-06
+1.16100E-06,+160.80402E-06
+1.16200E-06,+160.80402E-06
+1.16300E-06,-160.80402E-06
+1.16400E-06,-160.80402E-06
+1.16500E-06,-140.70352E-06
+1.16600E-06,+0.0E+00
+1.16700E-06,+0.0E+00
+1.16800E-06,+160.80402E-06
+1.16900E-06,+0.0E+00
+1.17000E-06,-140.70352E-06
+1.17100E-06,+0.0E+00
+1.17200E-06,+0.0E+00
+1.17300E-06,-160.80402E-06
+1.17400E-06,+160.80402E-06
+1.17500E-06,+160.80402E-06
+1.17600E-06,+160.80402E-06
+1.17700E-06,+321.60804E-06
+1.17800E-06,+321.60804E-06
+1.17900E-06,+462.31155E-06
+1.18000E-06,+140.70352E-06
+1.18100E-06,-160.80402E-06
+1.18200E-06,+160.80402E-06
+1.18300E-06,+160.80402E-06
+1.18400E-06,+20.10050E-06
+1.18500E-06,+321.60804E-06
+1.18600E-06,+321.60804E-06
+1.18700E-06,+160.80402E-06
+1.18800E-06,+0.0E+00
+1.18900E-06,+0.0E+00
+1.19000E-06,+20.10050E-06
+1.19100E-06,+140.70352E-06
+1.19200E-06,+0.0E+00
+1.19300E-06,+160.80402E-06
+1.19400E-06,+160.80402E-06
+1.19500E-06,+0.0E+00
+1.19600E-06,+0.0E+00
+1.19700E-06,+0.0E+00
+1.19800E-06,+0.0E+00
+1.19900E-06,+160.80402E-06
+1.20000E-06,+160.80402E-06
+1.20100E-06,+0.0E+00
+1.20200E-06,-20.10050E-06
+1.20300E-06,-180.90452E-06
+1.20400E-06,+0.0E+00
+1.20500E-06,-20.10050E-06
+1.20600E-06,-321.60804E-06
+1.20700E-06,-160.80402E-06
+1.20800E-06,-160.80402E-06
+1.20900E-06,-160.80402E-06
+1.21000E-06,-341.70854E-06
+1.21100E-06,-482.41206E-06
+1.21200E-06,-462.31155E-06
+1.21300E-06,-482.41206E-06
+1.21400E-06,-321.60804E-06
+1.21500E-06,-140.70352E-06
+1.21600E-06,-20.10050E-06
+1.21700E-06,-160.80402E-06
+1.21800E-06,-140.70352E-06
+1.21900E-06,+0.0E+00
+1.22000E-06,-160.80402E-06
+1.22100E-06,-20.10050E-06
+1.22200E-06,+0.0E+00
+1.22300E-06,+20.10050E-06
+1.22400E-06,+160.80402E-06
+1.22500E-06,+160.80402E-06
+1.22600E-06,+160.80402E-06
+1.22700E-06,+0.0E+00
+1.22800E-06,+20.10050E-06
+1.22900E-06,+160.80402E-06
+1.23000E-06,+160.80402E-06
+1.23100E-06,+0.0E+00
+1.23200E-06,+0.0E+00
+1.23300E-06,+20.10050E-06
+1.23400E-06,+321.60804E-06
+1.23500E-06,+160.80402E-06
+1.23600E-06,+0.0E+00
+1.23700E-06,+0.0E+00
+1.23800E-06,+0.0E+00
+1.23900E-06,+160.80402E-06
+1.24000E-06,+160.80402E-06
+1.24100E-06,+140.70352E-06
+1.24200E-06,+0.0E+00
+1.24300E-06,+0.0E+00
+1.24400E-06,+160.80402E-06
+1.24500E-06,+321.60804E-06
+1.24600E-06,+321.60804E-06
+1.24700E-06,+160.80402E-06
+1.24800E-06,+160.80402E-06
+1.24900E-06,+20.10050E-06
+1.25000E-06,+160.80402E-06
+1.25100E-06,+0.0E+00
+1.25200E-06,+0.0E+00
+1.25300E-06,+180.90452E-06
+1.25400E-06,+321.60804E-06
+1.25500E-06,+301.50753E-06
+1.25600E-06,+160.80402E-06
+1.25700E-06,+160.80402E-06
+1.25800E-06,+160.80402E-06
+1.25900E-06,+160.80402E-06
+1.26000E-06,+20.10050E-06
+1.26100E-06,+160.80402E-06
+1.26200E-06,+0.0E+00
+1.26300E-06,+160.80402E-06
+1.26400E-06,+321.60804E-06
+1.26500E-06,-20.10050E-06
+1.26600E-06,-160.80402E-06
+1.26700E-06,+0.0E+00
+1.26800E-06,-160.80402E-06
+1.26900E-06,-160.80402E-06
+1.27000E-06,-160.80402E-06
+1.27100E-06,-140.70352E-06
+1.27200E-06,-160.80402E-06
+1.27300E-06,-341.70854E-06
+1.27400E-06,-482.41206E-06
+1.27500E-06,-321.60804E-06
+1.27600E-06,+0.0E+00
+1.27700E-06,+140.70352E-06
+1.27800E-06,+0.0E+00
+1.27900E-06,+0.0E+00
+1.28000E-06,-160.80402E-06
+1.28100E-06,-321.60804E-06
+1.28200E-06,-321.60804E-06
+1.28300E-06,-140.70352E-06
+1.28400E-06,+0.0E+00
+1.28500E-06,+0.0E+00
+1.28600E-06,+0.0E+00
+1.28700E-06,+0.0E+00
+1.28800E-06,+0.0E+00
+1.28900E-06,+0.0E+00
+1.29000E-06,-160.80402E-06
+1.29100E-06,-321.60804E-06
+1.29200E-06,-321.60804E-06
+1.29300E-06,-321.60804E-06
+1.29400E-06,-321.60804E-06
+1.29500E-06,-321.60804E-06
+1.29600E-06,+0.0E+00
+1.29700E-06,+0.0E+00
+1.29800E-06,-160.80402E-06
+1.29900E-06,-160.80402E-06
+1.30000E-06,-321.60804E-06
+1.30100E-06,-160.80402E-06
+1.30200E-06,-160.80402E-06
+1.30300E-06,-160.80402E-06
+1.30400E-06,+20.10050E-06
+1.30500E-06,+0.0E+00
+1.30600E-06,-160.80402E-06
+1.30700E-06,-160.80402E-06
+1.30800E-06,+0.0E+00
+1.30900E-06,+321.60804E-06
+1.31000E-06,-20.10050E-06
+1.31100E-06,-160.80402E-06
+1.31200E-06,-160.80402E-06
+1.31300E-06,-301.50753E-06
+1.31400E-06,+0.0E+00
+1.31500E-06,+160.80402E-06
+1.31600E-06,+0.0E+00
+1.31700E-06,-20.10050E-06
+1.31800E-06,-321.60804E-06
+1.31900E-06,-321.60804E-06
+1.32000E-06,-160.80402E-06
+1.32100E-06,+0.0E+00
+1.32200E-06,+20.10050E-06
+1.32300E-06,+160.80402E-06
+1.32400E-06,+160.80402E-06
+1.32500E-06,+140.70352E-06
+1.32600E-06,+0.0E+00
+1.32700E-06,+0.0E+00
+1.32800E-06,-20.10050E-06
+1.32900E-06,-160.80402E-06
+1.33000E-06,+20.10050E-06
+1.33100E-06,+160.80402E-06
+1.33200E-06,+0.0E+00
+1.33300E-06,+160.80402E-06
+1.33400E-06,+160.80402E-06
+1.33500E-06,+160.80402E-06
+1.33600E-06,+160.80402E-06
+1.33700E-06,+0.0E+00
+1.33800E-06,+160.80402E-06
+1.33900E-06,+0.0E+00
+1.34000E-06,+0.0E+00
+1.34100E-06,-20.10050E-06
+1.34200E-06,-160.80402E-06
+1.34300E-06,-160.80402E-06
+1.34400E-06,+0.0E+00
+1.34500E-06,-160.80402E-06
+1.34600E-06,+20.10050E-06
+1.34700E-06,+462.31155E-06
+1.34800E-06,+160.80402E-06
+1.34900E-06,+160.80402E-06
+1.35000E-06,+160.80402E-06
+1.35100E-06,+160.80402E-06
+1.35200E-06,+0.0E+00
+1.35300E-06,+180.90452E-06
+1.35400E-06,+643.21607E-06
+1.35500E-06,+643.21607E-06
+1.35600E-06,+482.41206E-06
+1.35700E-06,+482.41206E-06
+1.35800E-06,+341.70854E-06
+1.35900E-06,+341.70854E-06
+1.36000E-06,+321.60804E-06
+1.36100E-06,+321.60804E-06
+1.36200E-06,+160.80402E-06
+1.36300E-06,+321.60804E-06
+1.36400E-06,+160.80402E-06
+1.36500E-06,+160.80402E-06
+1.36600E-06,+321.60804E-06
+1.36700E-06,+482.41206E-06
+1.36800E-06,+321.60804E-06
+1.36900E-06,+301.50753E-06
+1.37000E-06,+160.80402E-06
+1.37100E-06,+160.80402E-06
+1.37200E-06,+321.60804E-06
+1.37300E-06,+482.41206E-06
+1.37400E-06,+321.60804E-06
+1.37500E-06,+321.60804E-06
+1.37600E-06,+321.60804E-06
+1.37700E-06,+341.70854E-06
+1.37800E-06,+482.41206E-06
+1.37900E-06,+321.60804E-06
+1.38000E-06,+160.80402E-06
+1.38100E-06,+160.80402E-06
+1.38200E-06,+160.80402E-06
+1.38300E-06,+321.60804E-06
+1.38400E-06,+321.60804E-06
+1.38500E-06,+160.80402E-06
+1.38600E-06,+321.60804E-06
+1.38700E-06,+160.80402E-06
+1.38800E-06,+321.60804E-06
+1.38900E-06,+321.60804E-06
+1.39000E-06,+160.80402E-06
+1.39100E-06,+180.90452E-06
+1.39200E-06,+321.60804E-06
+1.39300E-06,+321.60804E-06
+1.39400E-06,+321.60804E-06
+1.39500E-06,+321.60804E-06
+1.39600E-06,+160.80402E-06
+1.39700E-06,+321.60804E-06
+1.39800E-06,+160.80402E-06
+1.39900E-06,+321.60804E-06
+1.40000E-06,+321.60804E-06
+1.40100E-06,+160.80402E-06
+1.40200E-06,-20.10050E-06
+1.40300E-06,+0.0E+00
+1.40400E-06,+0.0E+00
+1.40500E-06,+160.80402E-06
+1.40600E-06,+321.60804E-06
+1.40700E-06,+321.60804E-06
+1.40800E-06,+160.80402E-06
+1.40900E-06,+0.0E+00
+1.41000E-06,+0.0E+00
+1.41100E-06,-160.80402E-06
+1.41200E-06,+0.0E+00
+1.41300E-06,+0.0E+00
+1.41400E-06,+0.0E+00
+1.41500E-06,-180.90452E-06
+1.41600E-06,-160.80402E-06
+1.41700E-06,-140.70352E-06
+1.41800E-06,-160.80402E-06
+1.41900E-06,-321.60804E-06
+1.42000E-06,-321.60804E-06
+1.42100E-06,-140.70352E-06
+1.42200E-06,+160.80402E-06
+1.42300E-06,+0.0E+00
+1.42400E-06,-160.80402E-06
+1.42500E-06,-160.80402E-06
+1.42600E-06,-140.70352E-06
+1.42700E-06,+0.0E+00
+1.42800E-06,+0.0E+00
+1.42900E-06,+0.0E+00
+1.43000E-06,+0.0E+00
+1.43100E-06,+160.80402E-06
+1.43200E-06,+140.70352E-06
+1.43300E-06,-160.80402E-06
+1.43400E-06,-160.80402E-06
+1.43500E-06,+0.0E+00
+1.43600E-06,+160.80402E-06
+1.43700E-06,+160.80402E-06
+1.43800E-06,+160.80402E-06
+1.43900E-06,+160.80402E-06
+1.44000E-06,+160.80402E-06
+1.44100E-06,+160.80402E-06
+1.44200E-06,+160.80402E-06
+1.44300E-06,+160.80402E-06
+1.44400E-06,+160.80402E-06
+1.44500E-06,+321.60804E-06
+1.44600E-06,+321.60804E-06
+1.44700E-06,+0.0E+00
+1.44800E-06,-160.80402E-06
+1.44900E-06,+0.0E+00
+1.45000E-06,+0.0E+00
+1.45100E-06,+0.0E+00
+1.45200E-06,+160.80402E-06
+1.45300E-06,+140.70352E-06
+1.45400E-06,+0.0E+00
+1.45500E-06,+20.10050E-06
+1.45600E-06,+160.80402E-06
+1.45700E-06,+0.0E+00
+1.45800E-06,+0.0E+00
+1.45900E-06,-160.80402E-06
+1.46000E-06,-140.70352E-06
+1.46100E-06,-160.80402E-06
+1.46200E-06,-160.80402E-06
+1.46300E-06,+0.0E+00
+1.46400E-06,-160.80402E-06
+1.46500E-06,-160.80402E-06
+1.46600E-06,+0.0E+00
+1.46700E-06,+0.0E+00
+1.46800E-06,-160.80402E-06
+1.46900E-06,-321.60804E-06
+1.47000E-06,-180.90452E-06
+1.47100E-06,-321.60804E-06
+1.47200E-06,-321.60804E-06
+1.47300E-06,-160.80402E-06
+1.47400E-06,-160.80402E-06
+1.47500E-06,-160.80402E-06
+1.47600E-06,-20.10050E-06
+1.47700E-06,-160.80402E-06
+1.47800E-06,-160.80402E-06
+1.47900E-06,-160.80402E-06
+1.48000E-06,-160.80402E-06
+1.48100E-06,-160.80402E-06
+1.48200E-06,-160.80402E-06
+1.48300E-06,+0.0E+00
+1.48400E-06,-160.80402E-06
+1.48500E-06,+0.0E+00
+1.48600E-06,+0.0E+00
+1.48700E-06,+180.90452E-06
+1.48800E-06,+341.70854E-06
+1.48900E-06,+482.41206E-06
+1.49000E-06,+160.80402E-06
+1.49100E-06,+0.0E+00
+1.49200E-06,+160.80402E-06
+1.49300E-06,+321.60804E-06
+1.49400E-06,+301.50753E-06
+1.49500E-06,+0.0E+00
+1.49600E-06,+0.0E+00
+1.49700E-06,+0.0E+00
+1.49800E-06,+0.0E+00
+1.49900E-06,+160.80402E-06
+1.50000E-06,+160.80402E-06
+1.50100E-06,+321.60804E-06
+1.50200E-06,+321.60804E-06
+1.50300E-06,+0.0E+00
+1.50400E-06,+20.10050E-06
+1.50500E-06,+321.60804E-06
+1.50600E-06,+321.60804E-06
+1.50700E-06,+160.80402E-06
+1.50800E-06,+160.80402E-06
+1.50900E-06,+160.80402E-06
+1.51000E-06,+160.80402E-06
+1.51100E-06,-20.10050E-06
+1.51200E-06,-160.80402E-06
+1.51300E-06,-160.80402E-06
+1.51400E-06,+0.0E+00
+1.51500E-06,+0.0E+00
+1.51600E-06,+160.80402E-06
+1.51700E-06,+140.70352E-06
+1.51800E-06,-160.80402E-06
+1.51900E-06,+0.0E+00
+1.52000E-06,+0.0E+00
+1.52100E-06,-160.80402E-06
+1.52200E-06,-140.70352E-06
+1.52300E-06,+160.80402E-06
+1.52400E-06,+160.80402E-06
+1.52500E-06,+0.0E+00
+1.52600E-06,+140.70352E-06
+1.52700E-06,-160.80402E-06
+1.52800E-06,-160.80402E-06
+1.52900E-06,+0.0E+00
+1.53000E-06,+0.0E+00
+1.53100E-06,-160.80402E-06
+1.53200E-06,-321.60804E-06
+1.53300E-06,-140.70352E-06
+1.53400E-06,-20.10050E-06
+1.53500E-06,-321.60804E-06
+1.53600E-06,-321.60804E-06
+1.53700E-06,-140.70352E-06
+1.53800E-06,+0.0E+00
+1.53900E-06,+0.0E+00
+1.54000E-06,+20.10050E-06
+1.54100E-06,+160.80402E-06
+1.54200E-06,+160.80402E-06
+1.54300E-06,+160.80402E-06
+1.54400E-06,+0.0E+00
+1.54500E-06,-160.80402E-06
+1.54600E-06,+0.0E+00
+1.54700E-06,+160.80402E-06
+1.54800E-06,+321.60804E-06
+1.54900E-06,+321.60804E-06
+1.55000E-06,+0.0E+00
+1.55100E-06,+0.0E+00
+1.55200E-06,+0.0E+00
+1.55300E-06,+160.80402E-06
+1.55400E-06,+321.60804E-06
+1.55500E-06,+160.80402E-06
+1.55600E-06,+160.80402E-06
+1.55700E-06,+160.80402E-06
+1.55800E-06,+160.80402E-06
+1.55900E-06,+0.0E+00
+1.56000E-06,+0.0E+00
+1.56100E-06,+0.0E+00
+1.56200E-06,+0.0E+00
+1.56300E-06,+0.0E+00
+1.56400E-06,+0.0E+00
+1.56500E-06,-160.80402E-06
+1.56600E-06,+0.0E+00
+1.56700E-06,+160.80402E-06
+1.56800E-06,+0.0E+00
+1.56900E-06,+20.10050E-06
+1.57000E-06,+160.80402E-06
+1.57100E-06,+160.80402E-06
+1.57200E-06,+160.80402E-06
+1.57300E-06,+0.0E+00
+1.57400E-06,+20.10050E-06
+1.57500E-06,+482.41206E-06
+1.57600E-06,+462.31155E-06
+1.57700E-06,+0.0E+00
+1.57800E-06,+0.0E+00
+1.57900E-06,+20.10050E-06
+1.58000E-06,+160.80402E-06
+1.58100E-06,+321.60804E-06
+1.58200E-06,+160.80402E-06
+1.58300E-06,+160.80402E-06
+1.58400E-06,+160.80402E-06
+1.58500E-06,+160.80402E-06
+1.58600E-06,+321.60804E-06
+1.58700E-06,+301.50753E-06
+1.58800E-06,+0.0E+00
+1.58900E-06,+0.0E+00
+1.59000E-06,+160.80402E-06
+1.59100E-06,+321.60804E-06
+1.59200E-06,+160.80402E-06
+1.59300E-06,+0.0E+00
+1.59400E-06,+0.0E+00
+1.59500E-06,-20.10050E-06
+1.59600E-06,+0.0E+00
+1.59700E-06,+0.0E+00
+1.59800E-06,+160.80402E-06
+1.59900E-06,+160.80402E-06
+1.60000E-06,-20.10050E-06
+1.60100E-06,-160.80402E-06
+1.60200E-06,+20.10050E-06
+1.60300E-06,+180.90452E-06
+1.60400E-06,+482.41206E-06
+1.60500E-06,+321.60804E-06
+1.60600E-06,+160.80402E-06
+1.60700E-06,+0.0E+00
+1.60800E-06,+0.0E+00
+1.60900E-06,+160.80402E-06
+1.61000E-06,+0.0E+00
+1.61100E-06,+0.0E+00
+1.61200E-06,+160.80402E-06
+1.61300E-06,+321.60804E-06
+1.61400E-06,+321.60804E-06
+1.61500E-06,+482.41206E-06
+1.61600E-06,+321.60804E-06
+1.61700E-06,+140.70352E-06
+1.61800E-06,-160.80402E-06
+1.61900E-06,+20.10050E-06
+1.62000E-06,+160.80402E-06
+1.62100E-06,+160.80402E-06
+1.62200E-06,+0.0E+00
+1.62300E-06,+0.0E+00
+1.62400E-06,+0.0E+00
+1.62500E-06,+0.0E+00
+1.62600E-06,+0.0E+00
+1.62700E-06,-160.80402E-06
+1.62800E-06,-160.80402E-06
+1.62900E-06,-160.80402E-06
+1.63000E-06,+0.0E+00
+1.63100E-06,+0.0E+00
+1.63200E-06,-160.80402E-06
+1.63300E-06,-160.80402E-06
+1.63400E-06,-160.80402E-06
+1.63500E-06,+0.0E+00
+1.63600E-06,-160.80402E-06
+1.63700E-06,+0.0E+00
+1.63800E-06,+160.80402E-06
+1.63900E-06,+0.0E+00
+1.64000E-06,+0.0E+00
+1.64100E-06,-160.80402E-06
+1.64200E-06,+20.10050E-06
+1.64300E-06,+321.60804E-06
+1.64400E-06,+160.80402E-06
+1.64500E-06,+0.0E+00
+1.64600E-06,+20.10050E-06
+1.64700E-06,+160.80402E-06
+1.64800E-06,+0.0E+00
+1.64900E-06,+0.0E+00
+1.65000E-06,+0.0E+00
+1.65100E-06,-321.60804E-06
+1.65200E-06,-321.60804E-06
+1.65300E-06,+20.10050E-06
+1.65400E-06,+321.60804E-06
+1.65500E-06,+140.70352E-06
+1.65600E-06,+0.0E+00
+1.65700E-06,+0.0E+00
+1.65800E-06,-160.80402E-06
+1.65900E-06,-160.80402E-06
+1.66000E-06,+0.0E+00
+1.66100E-06,-160.80402E-06
+1.66200E-06,+0.0E+00
+1.66300E-06,+160.80402E-06
+1.66400E-06,+160.80402E-06
+1.66500E-06,+20.10050E-06
+1.66600E-06,+160.80402E-06
+1.66700E-06,+160.80402E-06
+1.66800E-06,+160.80402E-06
+1.66900E-06,+160.80402E-06
+1.67000E-06,+160.80402E-06
+1.67100E-06,+160.80402E-06
+1.67200E-06,+0.0E+00
+1.67300E-06,+160.80402E-06
+1.67400E-06,+160.80402E-06
+1.67500E-06,+321.60804E-06
+1.67600E-06,+160.80402E-06
+1.67700E-06,+0.0E+00
+1.67800E-06,+20.10050E-06
+1.67900E-06,+160.80402E-06
+1.68000E-06,+160.80402E-06
+1.68100E-06,+160.80402E-06
+1.68200E-06,+321.60804E-06
+1.68300E-06,+160.80402E-06
